{"learner":{"attributes":{"best_iteration":"87","best_score":"107.82615827736389","scikit_learn":"{\"_estimator_type\": \"regressor\"}"},"feature_names":["Close ETH-USD","lag_1 ","lag_3 ","lag_7 ","lag_14 ","ma_7 ","ma_14 ","ma_30 "],"feature_types":["float","float","float","float","float","float","float","float"],"gradient_booster":{"model":{"gbtree_model_param":{"num_parallel_tree":"1","num_trees":"138"},"iteration_indptr":[0,1,2,3,4,5,6,7,8,9,10,11,12,13,14,15,16,17,18,19,20,21,22,23,24,25,26,27,28,29,30,31,32,33,34,35,36,37,38,39,40,41,42,43,44,45,46,47,48,49,50,51,52,53,54,55,56,57,58,59,60,61,62,63,64,65,66,67,68,69,70,71,72,73,74,75,76,77,78,79,80,81,82,83,84,85,86,87,88,89,90,91,92,93,94,95,96,97,98,99,100,101,102,103,104,105,106,107,108,109,110,111,112,113,114,115,116,117,118,119,120,121,122,123,124,125,126,127,128,129,130,131,132,133,134,135,136,137,138],"tree_info":[0,0,0,0,0,0,0,0,0,0,0,0,0,0,0,0,0,0,0,0,0,0,0,0,0,0,0,0,0,0,0,0,0,0,0,0,0,0,0,0,0,0,0,0,0,0,0,0,0,0,0,0,0,0,0,0,0,0,0,0,0,0,0,0,0,0,0,0,0,0,0,0,0,0,0,0,0,0,0,0,0,0,0,0,0,0,0,0,0,0,0,0,0,0,0,0,0,0,0,0,0,0,0,0,0,0,0,0,0,0,0,0,0,0,0,0,0,0,0,0,0,0,0,0,0,0,0,0,0,0,0,0,0,0,0,0,0,0],"trees":[{"base_weights":[-7.237039E0,-6.066102E2,1.00110236E3,-8.7803107E2,-3.1861554E2,7.427621E2,1.637852E3,-5.6447243E1,-7.486191E2,-4.796683E2,-3.435276E1,4.5661002E2,9.1681714E2,7.251595E1,9.6488846E1,-3.9126442E1,-3.143154E1,-2.5725021E1,-1.6985771E1,-1.0872868E2,1.1337285E2,2.763729E2,5.492535E2,3.7272324E1,1.0107508E3,-6.1165113E0,5.5799756E0,3.6282563E0,7.4255967E0,1.0174688E1,1.600631E1,2.2305809E1,2.9885761E1,5.097422E1,2.1247132E0],"categories":[],"categories_nodes":[],"categories_segments":[],"categories_sizes":[],"default_left":[0,0,0,0,0,0,0,0,0,0,0,0,0,0,0,0,0,0,0,0,0,0,0,0,0,0,0,0,0,0,0,0,0,0,0],"id":0,"left_children":[1,3,5,7,9,11,13,-1,15,17,19,21,23,-1,-1,-1,-1,-1,-1,25,27,29,31,-1,33,-1,-1,-1,-1,-1,-1,-1,-1,-1,-1],"loss_changes":[6.2250566E8,5.021659E7,6.195069E7,9.935328E6,1.440463E7,1.327808E7,3.223232E6,0E0,4.11344E5,8.05064E5,1.2758581E6,1.61817E6,1.983104E6,0E0,0E0,0E0,0E0,0E0,0E0,2.4440581E5,4.5147156E4,5.6027E4,7.8224E4,0E0,8.61512E5,0E0,0E0,0E0,0E0,0E0,0E0,0E0,0E0,0E0,0E0],"parents":[2147483647,0,0,1,1,2,2,3,3,4,4,5,5,6,6,8,8,9,9,10,10,11,11,12,12,19,19,20,20,21,21,22,22,24,24],"right_children":[2,4,6,8,10,12,14,-1,16,18,20,22,24,-1,-1,-1,-1,-1,-1,26,28,30,32,-1,34,-1,-1,-1,-1,-1,-1,-1,-1,-1,-1],"split_conditions":[2.5902632E3,1.7828551E3,3.5908838E3,1.3690405E3,2.1095798E3,3.0200898E3,4.11272E3,-5.6447243E1,1.6792744E3,1.9553892E3,2.372202E3,2.7644312E3,3.2332747E3,7.251595E1,9.6488846E1,-3.9126442E1,-3.143154E1,-2.5725021E1,-1.6985771E1,2.6628652E3,2.4722412E3,2.6392993E3,2.8909417E3,3.7272324E1,4.0790574E3,-6.1165113E0,5.5799756E0,3.6282563E0,7.4255967E0,1.0174688E1,1.600631E1,2.2305809E1,2.9885761E1,5.097422E1,2.1247132E0],"split_indices":[0,0,0,0,0,0,5,0,0,0,0,0,0,0,0,0,0,0,0,2,0,0,0,0,3,0,0,0,0,0,0,0,0,0,0],"split_type":[0,0,0,0,0,0,0,0,0,0,0,0,0,0,0,0,0,0,0,0,0,0,0,0,0,0,0,0,0,0,0,0,0,0,0],"sum_hessian":[1.028E3,6.45E2,3.83E2,3.31E2,3.14E2,2.74E2,1.09E2,1.1E2,2.21E2,2E2,1.14E2,1.05E2,1.69E2,7E1,3.9E1,1.68E2,5.3E1,1.58E2,4.2E1,7.6E1,3.8E1,3.7E1,6.8E1,6.3E1,1.06E2,7.2E1,4E0,1.9E1,1.9E1,1.6E1,2.1E1,2.5E1,4.3E1,1.05E2,1E0],"tree_param":{"num_deleted":"0","num_feature":"8","num_nodes":"35","size_leaf_vector":"1"}},{"base_weights":[1.4429235E1,-5.643714E2,9.3574854E2,-7.993467E2,-2.6520197E2,6.7793274E2,1.4501316E3,-5.165672E1,-6.8450555E2,-4.3530914E2,-2.6818748E1,3.712257E2,8.1239453E2,1.2106702E3,8.7247185E1,-3.611326E1,-2.8786518E1,-2.3598425E1,-3.4938916E2,-9.222924E1,1.2109983E2,5.207337E2,2.795943E2,7.2949567E2,4.7692047E1,6.1295544E1,2.0715942E0,-5.9164824E0,-1.805604E1,-3.1585755E0,-1.5883603E1,1.2342326E1,1.4929458E0,1.4514162E1,2.956696E1,1.1185148E1,2.1717987E1,3.9372402E1,2.9521402E1],"categories":[],"categories_nodes":[],"categories_segments":[],"categories_sizes":[],"default_left":[0,0,0,0,0,0,0,0,0,0,0,0,0,0,0,0,0,0,0,0,0,0,0,0,0,0,0,0,0,0,0,0,0,0,0,0,0,0,0],"id":1,"left_children":[1,3,5,7,9,11,13,-1,15,17,19,21,23,25,-1,-1,-1,-1,27,29,31,33,35,37,-1,-1,-1,-1,-1,-1,-1,-1,-1,-1,-1,-1,-1,-1,-1],"loss_changes":[5.417872E8,4.3653616E7,5.100237E7,8.662928E6,1.1180316E7,1.0544648E7,7.06496E6,0E0,5.57608E5,3.42212E5,1.1335185E6,9.77774E5,1.438264E6,1.285696E6,0E0,0E0,0E0,0E0,9.8225E4,5.1055162E5,4.056662E5,3.164765E5,3.6128525E5,4.94124E5,0E0,0E0,0E0,0E0,0E0,0E0,0E0,0E0,0E0,0E0,0E0,0E0,0E0,0E0,0E0],"parents":[2147483647,0,0,1,1,2,2,3,3,4,4,5,5,6,6,8,8,9,9,10,10,11,11,12,12,13,13,18,18,19,19,20,20,21,21,22,22,23,23],"right_children":[2,4,6,8,10,12,14,-1,16,18,20,22,24,26,-1,-1,-1,-1,28,30,32,34,36,38,-1,-1,-1,-1,-1,-1,-1,-1,-1,-1,-1,-1,-1,-1,-1],"split_conditions":[2.5544004E3,1.8201676E3,3.5198542E3,1.449005E3,2.0774885E3,2.9755828E3,3.944131E3,-5.165672E1,1.7088651E3,1.9260522E3,2.3807278E3,2.5876912E3,3.3290735E3,4.134453E3,8.7247185E1,-3.611326E1,-2.8786518E1,-2.3598425E1,1.832396E3,2.400461E3,2.4245747E3,2.6628652E3,2.8954807E3,3.2115059E3,4.7692047E1,6.1295544E1,2.0715942E0,-5.9164824E0,-1.805604E1,-3.1585755E0,-1.5883603E1,1.2342326E1,1.4929458E0,1.4514162E1,2.956696E1,1.1185148E1,2.1717987E1,3.9372402E1,2.9521402E1],"split_indices":[5,5,5,5,5,5,5,0,5,5,5,4,5,3,0,0,0,0,2,7,6,2,5,3,0,0,0,0,0,0,0,0,0,0,0,0,0,0,0],"split_type":[0,0,0,0,0,0,0,0,0,0,0,0,0,0,0,0,0,0,0,0,0,0,0,0,0,0,0,0,0,0,0,0,0,0,0,0,0,0,0],"sum_hessian":[1.014E3,6.23E2,3.91E2,3.48E2,2.75E2,2.62E2,1.29E2,1.12E2,2.36E2,1.6E2,1.15E2,8.1E1,1.81E2,7.4E1,5.5E1,1.71E2,6.5E1,1.09E2,5.1E1,8E1,3.5E1,2.9E1,5.2E1,1.18E2,6.3E1,7.3E1,1E0,3E0,4.8E1,7.2E1,8E0,1.4E1,2.1E1,8E0,2.1E1,4E1,1.2E1,8E1,3.8E1],"tree_param":{"num_deleted":"0","num_feature":"8","num_nodes":"39","size_leaf_vector":"1"}},{"base_weights":[-7.765802E0,-5.3904504E2,8.9514703E2,-6.9135266E2,-8.6316154E1,6.844195E2,1.4942042E3,-5.015083E1,-5.8408264E2,-2.9170416E2,5.327348E0,4.1219028E2,8.2421204E2,6.3589344E1,8.473799E1,-3.4062836E1,-2.3691614E1,-3.2666296E2,-1.0873666E1,-6.016261E1,1.09394844E2,2.9246967E2,4.9107367E2,7.1247455E2,4.8185257E1,-4.8005004E0,-1.6550314E1,-3.7191613E0,9.653666E0,6.0493445E0,-4.4679365E0,1.5130488E1,-2.8283691E0,2.49988E1,-1.8641357E-1,3.5924526E1,2.019806E0],"categories":[],"categories_nodes":[],"categories_segments":[],"categories_sizes":[],"default_left":[0,0,0,0,0,0,0,0,0,0,0,0,0,0,0,0,0,0,0,0,0,0,0,0,0,0,0,0,0,0,0,0,0,0,0,0,0],"id":2,"left_children":[1,3,5,7,9,11,13,-1,15,17,19,21,23,-1,-1,-1,-1,25,-1,27,29,31,33,35,-1,-1,-1,-1,-1,-1,-1,-1,-1,-1,-1,-1,-1],"loss_changes":[4.8689718E8,4.400197E7,4.644275E7,1.5394752E7,3.050795E6,1.031584E7,2.17152E6,0E0,3.512624E6,5.87105E4,7.7671894E5,7.72441E5,2.181312E6,0E0,0E0,0E0,0E0,2.775E2,0E0,2.664433E5,1.1218544E5,1.6222775E5,2.52943E5,3.9956E5,0E0,0E0,0E0,0E0,0E0,0E0,0E0,0E0,0E0,0E0,0E0,0E0,0E0],"parents":[2147483647,0,0,1,1,2,2,3,3,4,4,5,5,6,6,8,8,9,9,10,10,11,11,12,12,17,17,19,19,20,20,21,21,22,22,23,23],"right_children":[2,4,6,8,10,12,14,-1,16,18,20,22,24,-1,-1,-1,-1,26,-1,28,30,32,34,36,-1,-1,-1,-1,-1,-1,-1,-1,-1,-1,-1,-1,-1],"split_conditions":[2.5876912E3,1.9612808E3,3.6667175E3,1.4386608E3,2.1500403E3,3.0137327E3,3.961206E3,-5.015083E1,1.7721024E3,2.0796575E3,2.372002E3,2.7921172E3,3.336594E3,6.3589344E1,8.473799E1,-3.4062836E1,-2.3691614E1,1.8140483E3,-1.0873666E1,2.827756E3,3.3541838E3,3.336594E3,3.471907E3,4.0375476E3,4.8185257E1,-4.8005004E0,-1.6550314E1,-3.7191613E0,9.653666E0,6.0493445E0,-4.4679365E0,1.5130488E1,-2.8283691E0,2.49988E1,-1.8641357E-1,3.5924526E1,2.019806E0],"split_indices":[1,1,1,1,1,1,6,0,1,1,1,1,1,0,0,0,0,2,0,4,3,2,7,3,0,0,0,0,0,0,0,0,0,0,0,0,0],"split_type":[0,0,0,0,0,0,0,0,0,0,0,0,0,0,0,0,0,0,0,0,0,0,0,0,0,0,0,0,0,0,0,0,0,0,0,0,0],"sum_hessian":[1.013E3,6.38E2,3.75E2,4.77E2,1.61E2,2.79E2,9.6E1,1.2E2,3.57E2,4.9E1,1.12E2,9.6E1,1.83E2,4.9E1,4.7E1,1.87E2,1.7E2,3.1E1,1.8E1,6.9E1,4.3E1,4E1,5.6E1,1.05E2,7.8E1,1E0,3E1,6.6E1,3E0,4.1E1,2E0,3.9E1,1E0,5.5E1,1E0,1.04E2,1E0],"tree_param":{"num_deleted":"0","num_feature":"8","num_nodes":"37","size_leaf_vector":"1"}},{"base_weights":[-9.368411E0,-5.0003082E2,8.879826E2,-6.584283E2,-6.5832085E1,6.514599E2,1.4297383E3,-9.457088E2,-5.507642E2,-1.5781189E2,1.2703824E2,4.8516925E2,8.707857E2,6.425741E1,8.8070885E1,-4.893005E1,-3.8635326E1,-3.2285133E1,-4.5592828E2,-2.6376044E2,-7.650084E1,8.435858E1,1.60413E2,2.8178165E2,5.623702E2,8.780519E2,1.9693116E0,-2.4403086E1,-2.0547295E1,-1.378441E1,-8.740743E0,-4.143406E0,4.7723346E0,3.3426049E0,1.0398096E1,9.695849E0,2.6622682E0,1.48025E1,-3.573283E-1,9.762528E0,2.8375172E1,3.8763577E1,4.775305E1],"categories":[],"categories_nodes":[],"categories_segments":[],"categories_sizes":[],"default_left":[0,0,0,0,0,0,0,0,0,0,0,0,0,0,0,0,0,0,0,0,0,0,0,0,0,0,0,0,0,0,0,0,0,0,0,0,0,0,0,0,0,0,0],"id":3,"left_children":[1,3,5,7,9,11,13,15,17,19,21,23,25,-1,-1,-1,-1,-1,27,29,31,33,35,37,39,41,-1,-1,-1,-1,-1,-1,-1,-1,-1,-1,-1,-1,-1,-1,-1,-1,-1],"loss_changes":[4.5835232E8,4.6242896E7,4.62232E7,1.472752E7,3.2310198E6,8.987256E6,3.059616E6,6.56E2,2.955888E6,1.039441E6,7.050875E4,2.181092E6,6.29936E5,0E0,0E0,0E0,0E0,0E0,6.5396E4,8.0345E3,8.564291E4,4.6685375E4,1.0457219E5,1.7938475E5,9.0836E4,1.22304E5,0E0,0E0,0E0,0E0,0E0,0E0,0E0,0E0,0E0,0E0,0E0,0E0,0E0,0E0,0E0,0E0,0E0],"parents":[2147483647,0,0,1,1,2,2,3,3,4,4,5,5,6,6,7,7,8,8,9,9,10,10,11,11,12,12,18,18,19,19,20,20,21,21,22,22,23,23,24,24,25,25],"right_children":[2,4,6,8,10,12,14,16,18,20,22,24,26,-1,-1,-1,-1,-1,28,30,32,34,36,38,40,42,-1,-1,-1,-1,-1,-1,-1,-1,-1,-1,-1,-1,-1,-1,-1,-1,-1],"split_conditions":[2.6101533E3,1.9613157E3,3.6304338E3,1.4826167E3,2.372202E3,3.2332747E3,4.274743E3,1.3356523E3,1.7205775E3,2.157657E3,2.5023496E3,2.8531433E3,4.0790574E3,6.425741E1,8.8070885E1,-4.893005E1,-3.8635326E1,-3.2285133E1,1.8471244E3,2.1200264E3,3.162668E3,3.4909937E3,2.688195E3,3.1827021E3,2.5804824E3,3.4220498E3,1.9693116E0,-2.4403086E1,-2.0547295E1,-1.378441E1,-8.740743E0,-4.143406E0,4.7723346E0,3.3426049E0,1.0398096E1,9.695849E0,2.6622682E0,1.48025E1,-3.573283E-1,9.762528E0,2.8375172E1,3.8763577E1,4.775305E1],"split_indices":[0,0,0,0,0,0,0,0,0,0,0,0,3,0,0,0,0,0,0,0,7,4,2,2,5,0,0,0,0,0,0,0,0,0,0,0,0,0,0,0,0,0,0],"split_type":[0,0,0,0,0,0,0,0,0,0,0,0,0,0,0,0,0,0,0,0,0,0,0,0,0,0,0,0,0,0,0,0,0,0,0,0,0,0,0,0,0,0,0],"sum_hessian":[1.039E3,6.72E2,3.67E2,4.92E2,1.8E2,2.57E2,1.1E2,1.32E2,3.6E2,1.22E2,5.8E1,1.48E2,1.09E2,8E1,3E1,1.07E2,2.5E1,1.77E2,1.83E2,5.2E1,7E1,2.7E1,3.1E1,4.2E1,1.06E2,1.08E2,1E0,1.01E2,8.2E1,4.4E1,8E0,6.8E1,2E0,2.5E1,2E0,2.3E1,8E0,4E1,2E0,2E0,1.04E2,5.1E1,5.7E1],"tree_param":{"num_deleted":"0","num_feature":"8","num_nodes":"43","size_leaf_vector":"1"}},{"base_weights":[1.9142374E1,-4.7027386E2,8.200707E2,-6.116439E2,-7.684135E1,6.170158E2,1.3614755E3,-4.5796265E1,-5.2517303E2,-2.3032684E2,1.6554058E1,4.4159274E2,7.8689734E2,5.914859E1,8.166131E1,-3.1191742E1,-4.344841E2,-2.3874184E2,7.495453E0,-4.015196E1,1.0743315E2,3.0985596E2,5.3697656E2,6.7726874E2,4.335687E1,-2.3317524E1,-1.9743101E1,-1.3252406E1,-7.912561E0,-2.93762E0,6.250818E0,-1.6949707E0,5.974154E0,1.5839932E1,-2.8412232E0,2.7310972E1,1.1124817E1,3.4332554E1,1.9200805E0],"categories":[],"categories_nodes":[],"categories_segments":[],"categories_sizes":[],"default_left":[0,0,0,0,0,0,0,0,0,0,0,0,0,0,0,0,0,0,0,0,0,0,0,0,0,0,0,0,0,0,0,0,0,0,0,0,0,0,0],"id":4,"left_children":[1,3,5,7,9,11,13,-1,15,17,19,21,23,-1,-1,-1,25,27,-1,29,31,33,35,37,-1,-1,-1,-1,-1,-1,-1,-1,-1,-1,-1,-1,-1,-1,-1],"loss_changes":[4.009967E8,3.527144E7,4.181469E7,1.1806448E7,2.4264008E6,8.116048E6,3.161312E6,0E0,3.003752E6,2.4056925E5,5.505731E5,1.617922E6,6.70624E5,0E0,0E0,0E0,6.0804E4,9.145275E4,0E0,2.1011039E5,7.387534E4,1.758385E5,1.1391E5,3.63244E5,0E0,0E0,0E0,0E0,0E0,0E0,0E0,0E0,0E0,0E0,0E0,0E0,0E0,0E0,0E0],"parents":[2147483647,0,0,1,1,2,2,3,3,4,4,5,5,6,6,8,8,9,9,10,10,11,11,12,12,16,16,17,17,19,19,20,20,21,21,22,22,23,23],"right_children":[2,4,6,8,10,12,14,-1,16,18,20,22,24,-1,-1,-1,26,28,-1,30,32,34,36,38,-1,-1,-1,-1,-1,-1,-1,-1,-1,-1,-1,-1,-1,-1,-1],"split_conditions":[2.5876912E3,1.9612808E3,3.6667175E3,1.416049E3,2.1964812E3,3.1424707E3,4.11272E3,-4.5796265E1,1.7190854E3,2.37874E3,2.4199065E3,2.9173628E3,3.336594E3,5.914859E1,8.166131E1,-3.1191742E1,1.8470897E3,2.1200059E3,7.495453E0,2.911602E3,2.1466924E3,3.336594E3,3.489565E3,4.0375476E3,4.335687E1,-2.3317524E1,-1.9743101E1,-1.3252406E1,-7.912561E0,-2.93762E0,6.250818E0,-1.6949707E0,5.974154E0,1.5839932E1,-2.8412232E0,2.7310972E1,1.1124817E1,3.4332554E1,1.9200805E0],"split_indices":[1,1,1,1,1,1,5,0,1,2,1,1,1,0,0,0,1,1,0,4,3,2,7,3,0,0,0,0,0,0,0,0,0,0,0,0,0,0,0],"split_type":[0,0,0,0,0,0,0,0,0,0,0,0,0,0,0,0,0,0,0,0,0,0,0,0,0,0,0,0,0,0,0,0,0,0,0,0,0,0,0],"sum_hessian":[1.021E3,6.34E2,3.87E2,4.66E2,1.68E2,2.83E2,1.04E2,1.01E2,3.65E2,6.3E1,1.05E2,1.41E2,1.42E2,6.6E1,3.8E1,1.72E2,1.93E2,6.2E1,1E0,6.5E1,4E1,6.1E1,8E1,6.4E1,7.8E1,1.01E2,9.2E1,4.5E1,1.7E1,5.9E1,6E0,3E0,3.7E1,6E1,1E0,7.7E1,3E0,6.3E1,1E0],"tree_param":{"num_deleted":"0","num_feature":"8","num_nodes":"39","size_leaf_vector":"1"}},{"base_weights":[-9.819005E0,-4.4925153E2,7.911086E2,-5.910358E2,-8.197893E1,5.290433E2,1.1427094E3,-4.2818848E1,-4.9357648E2,-1.9217409E2,5.3514915E1,3.4900388E2,6.352686E2,4.747549E1,6.8907394E1,-2.9313705E1,-4.1123584E2,-1.2323995E1,-1.01392365E2,-5.377759E0,1.3165326E2,2.2833539E2,3.9499884E2,2.8402304E1,7.087089E2,-2.175562E1,-1.8236757E1,-6.4236536E0,-3.7306492E0,-1.3664856E0,3.7468204E0,6.9444847E0,1.6719157E-1,1.2569137E1,-1.223637E0,2.0263792E1,3.5747478E0,3.6097164E1,1.0830453E1],"categories":[],"categories_nodes":[],"categories_segments":[],"categories_sizes":[],"default_left":[0,0,0,0,0,0,0,0,0,0,0,0,0,0,0,0,0,0,0,0,0,0,0,0,0,0,0,0,0,0,0,0,0,0,0,0,0,0,0],"id":5,"left_children":[1,3,5,7,9,11,13,-1,15,17,19,21,23,-1,-1,-1,25,-1,27,29,31,33,35,-1,37,-1,-1,-1,-1,-1,-1,-1,-1,-1,-1,-1,-1,-1,-1],"loss_changes":[3.6955472E8,3.5257376E7,3.3672416E7,1.2222848E7,2.84713E6,3.890108E6,5.878304E6,0E0,2.506704E6,4.9265625E5,3.9646075E5,3.64919E5,2.58956E5,0E0,0E0,0E0,5.6692E4,0E0,2.0147625E4,9.020063E4,3.3890188E4,1.5181588E5,1.63855E5,0E0,2.34376E5,0E0,0E0,0E0,0E0,0E0,0E0,0E0,0E0,0E0,0E0,0E0,0E0,0E0,0E0],"parents":[2147483647,0,0,1,1,2,2,3,3,4,4,5,5,6,6,8,8,9,9,10,10,11,11,12,12,16,16,18,18,19,19,20,20,21,21,22,22,24,24],"right_children":[2,4,6,8,10,12,14,-1,16,18,20,22,24,-1,-1,-1,26,-1,28,30,32,34,36,-1,38,-1,-1,-1,-1,-1,-1,-1,-1,-1,-1,-1,-1,-1,-1],"split_conditions":[2.6218018E3,1.9553892E3,3.4291697E3,1.4826167E3,2.2960383E3,2.9881685E3,3.864261E3,-4.2818848E1,1.7205775E3,2.157657E3,2.4722412E3,2.7644312E3,3.2243743E3,4.747549E1,6.8907394E1,-2.9313705E1,1.8593878E3,-1.2323995E1,2.240686E3,2.8604592E3,2.9815986E3,3.183599E3,3.3604717E3,2.8402304E1,3.7085022E3,-2.175562E1,-1.8236757E1,-6.4236536E0,-3.7306492E0,-1.3664856E0,3.7468204E0,6.9444847E0,1.6719157E-1,1.2569137E1,-1.223637E0,2.0263792E1,3.5747478E0,3.6097164E1,1.0830453E1],"split_indices":[0,0,0,0,0,0,0,0,0,0,0,0,0,0,0,0,0,0,1,4,2,7,6,0,6,0,0,0,0,0,0,0,0,0,0,0,0,0,0],"split_type":[0,0,0,0,0,0,0,0,0,0,0,0,0,0,0,0,0,0,0,0,0,0,0,0,0,0,0,0,0,0,0,0,0,0,0,0,0,0,0],"sum_hessian":[1.048E3,6.77E2,3.71E2,4.88E2,1.89E2,2.14E2,1.57E2,1.29E2,3.59E2,1.04E2,8.5E1,8.1E1,1.33E2,8.9E1,6.8E1,1.66E2,1.93E2,6.4E1,4E1,4.9E1,3.6E1,2.4E1,5.7E1,7.4E1,5.9E1,1.22E2,7.1E1,1.8E1,2.2E1,3.9E1,1E1,3.4E1,2E0,2.2E1,2E0,5.5E1,2E0,5.7E1,2E0],"tree_param":{"num_deleted":"0","num_feature":"8","num_nodes":"39","size_leaf_vector":"1"}},{"base_weights":[-8.293385E0,-4.5962808E2,6.8154486E2,-6.702304E2,-2.7316052E2,4.7910852E2,1.1109503E3,-4.2049557E1,-5.731102E2,-3.765767E2,-5.7096085E1,3.0671152E2,6.2730115E2,4.6750942E1,6.617964E1,-3.1221073E1,-2.6330154E1,-3.928327E2,-2.7107742E2,-1.6850102E2,-3.4432514E1,1.8933656E2,3.9297723E2,2.7244013E1,7.04516E2,-2.1003088E1,-1.7809443E1,-9.01559E0,-1.4428962E1,-9.630332E0,-3.365254E0,-2.4863446E0,4.7212305E0,1.24138775E1,6.947342E0,1.9996487E1,-2.863861E0,3.5670567E1,1.6013123E0],"categories":[],"categories_nodes":[],"categories_segments":[],"categories_sizes":[],"default_left":[0,0,0,0,0,0,0,0,0,0,0,0,0,0,0,0,0,0,0,0,0,0,0,0,0,0,0,0,0,0,0,0,0,0,0,0,0,0,0],"id":6,"left_children":[1,3,5,7,9,11,13,-1,15,17,19,21,23,-1,-1,-1,-1,25,27,29,31,33,35,-1,37,-1,-1,-1,-1,-1,-1,-1,-1,-1,-1,-1,-1,-1,-1],"loss_changes":[3.1882218E8,2.4125336E7,3.4673264E7,4.32748E6,7.352204E6,6.884384E6,3.588368E6,0E0,1.19812E5,2.75956E5,2.6688006E5,1.241901E6,5.58016E5,0E0,0E0,0E0,0E0,4.0954E4,3.885E2,3.0945656E4,1.8403725E5,1.3479388E5,2.54555E5,0E0,4.1384E5,0E0,0E0,0E0,0E0,0E0,0E0,0E0,0E0,0E0,0E0,0E0,0E0,0E0,0E0],"parents":[2147483647,0,0,1,1,2,2,3,3,4,4,5,5,6,6,8,8,9,9,10,10,11,11,12,12,17,17,18,18,19,19,20,20,21,21,22,22,24,24],"right_children":[2,4,6,8,10,12,14,-1,16,18,20,22,24,-1,-1,-1,-1,26,28,30,32,34,36,-1,38,-1,-1,-1,-1,-1,-1,-1,-1,-1,-1,-1,-1,-1,-1],"split_conditions":[2.5012283E3,1.7137653E3,3.5057349E3,1.3356523E3,2.0796575E3,3.0137327E3,3.908496E3,-4.2049557E1,1.5865354E3,1.9612808E3,2.1247766E3,2.7644312E3,3.244079E3,4.6750942E1,6.617964E1,-3.1221073E1,-2.6330154E1,1.8488899E3,1.8890079E3,2.1500403E3,2.9435747E3,2.5903596E3,3.6304338E3,2.7244013E1,3.96086E3,-2.1003088E1,-1.7809443E1,-9.01559E0,-1.4428962E1,-9.630332E0,-3.365254E0,-2.4863446E0,4.7212305E0,1.24138775E1,6.947342E0,1.9996487E1,-2.863861E0,3.5670567E1,1.6013123E0],"split_indices":[1,1,1,1,1,1,1,0,1,1,2,1,1,0,0,0,0,1,3,1,4,3,3,0,3,0,0,0,0,0,0,0,0,0,0,0,0,0,0],"split_type":[0,0,0,0,0,0,0,0,0,0,0,0,0,0,0,0,0,0,0,0,0,0,0,0,0,0,0,0,0,0,0,0,0,0,0,0,0,0,0],"sum_hessian":[1.022E3,6.18E2,4.04E2,2.89E2,3.29E2,2.76E2,1.28E2,1.02E2,1.87E2,2.22E2,1.07E2,1.29E2,1.47E2,7.3E1,5.5E1,8.3E1,1.04E2,1.9E2,3.2E1,1.7E1,9E1,5.6E1,7.3E1,7.5E1,7.2E1,1.03E2,8.7E1,7E0,2.5E1,1.3E1,4E0,8.1E1,9E0,2.4E1,3.2E1,7.2E1,1E0,7.1E1,1E0],"tree_param":{"num_deleted":"0","num_feature":"8","num_nodes":"39","size_leaf_vector":"1"}},{"base_weights":[1.3775376E1,-3.9950095E2,7.5741144E2,-5.285869E2,-6.9854645E1,5.496552E2,1.1585542E3,-7.73267E2,-4.4044638E2,-1.6955789E2,6.98569E1,4.341361E2,7.214356E2,5.2058105E1,7.099264E1,-4.034566E1,-3.1991179E1,-2.6542784E1,-3.7411493E2,-2.3373341E2,-9.348263E1,7.0326056E0,1.25034676E2,3.1063657E2,2.485698E1,3.6415005E1,1.5612793E0,-2.0090872E1,-1.6719313E1,-2.4835021E0,-1.1802527E1,-4.06838E0,-9.554519E0,-1.0528665E0,3.8947465E0,6.9634223E0,2.35663E0,1.1569659E1,1.7582548E1],"categories":[],"categories_nodes":[],"categories_segments":[],"categories_sizes":[],"default_left":[0,0,0,0,0,0,0,0,0,0,0,0,0,0,0,0,0,0,0,0,0,0,0,0,0,0,0,0,0,0,0,0,0,0,0,0,0,0,0],"id":7,"left_children":[1,3,5,7,9,11,13,15,17,19,21,23,25,-1,-1,-1,-1,-1,27,29,31,33,35,37,-1,-1,-1,-1,-1,-1,-1,-1,-1,-1,-1,-1,-1,-1,-1],"loss_changes":[3.1746422E8,2.821808E7,3.0115616E7,9.946504E6,2.6306275E6,4.54856E6,2.356E6,4.4952E4,1.918336E6,5.151885E5,2.7297453E5,1.004926E6,4.36836E5,0E0,0E0,0E0,0E0,0E0,9.346E4,1.343875E4,4.594253E4,7.7279945E4,4.000725E4,9.08865E4,0E0,0E0,0E0,0E0,0E0,0E0,0E0,0E0,0E0,0E0,0E0,0E0,0E0,0E0,0E0],"parents":[2147483647,0,0,1,1,2,2,3,3,4,4,5,5,6,6,7,7,8,8,9,9,10,10,11,11,12,12,18,18,19,19,20,20,21,21,22,22,23,23],"right_children":[2,4,6,8,10,12,14,16,18,20,22,24,26,-1,-1,-1,-1,-1,28,30,32,34,36,38,-1,-1,-1,-1,-1,-1,-1,-1,-1,-1,-1,-1,-1,-1,-1],"split_conditions":[2.6218018E3,1.9613157E3,3.5908838E3,1.5143749E3,2.3246794E3,3.244079E3,4.216365E3,1.3356523E3,1.702842E3,2.157657E3,2.4722412E3,2.9501184E3,4.0790574E3,5.2058105E1,7.099264E1,-4.034566E1,-3.1991179E1,-2.6542784E1,1.8517427E3,1.5994767E3,2.6421853E3,2.8604592E3,2.7020537E3,2.7644312E3,2.485698E1,3.6415005E1,1.5612793E0,-2.0090872E1,-1.6719313E1,-2.4835021E0,-1.1802527E1,-4.06838E0,-9.554519E0,-1.0528665E0,3.8947465E0,6.9634223E0,2.35663E0,1.1569659E1,1.7582548E1],"split_indices":[0,0,0,0,0,0,0,0,0,0,0,0,3,0,0,0,0,0,0,3,4,4,5,0,0,0,0,0,0,0,0,0,0,0,0,0,0,0,0],"split_type":[0,0,0,0,0,0,0,0,0,0,0,0,0,0,0,0,0,0,0,0,0,0,0,0,0,0,0,0,0,0,0,0,0,0,0,0,0,0,0],"sum_hessian":[1.031E3,6.63E2,3.68E2,4.76E2,1.87E2,2.44E2,1.24E2,1.24E2,3.52E2,1.09E2,7.8E1,1.48E2,9.6E1,8.9E1,3.5E1,9.5E1,2.9E1,1.46E2,2.06E2,5.8E1,5.1E1,3.7E1,4.1E1,5.2E1,9.6E1,9.5E1,1E0,1.16E2,9E1,1E0,5.7E1,4.7E1,4E0,2.7E1,1E1,3.4E1,7E0,2E1,3.2E1],"tree_param":{"num_deleted":"0","num_feature":"8","num_nodes":"39","size_leaf_vector":"1"}},{"base_weights":[7.0868673E0,-4.0466568E2,6.492803E2,-5.9531604E2,-2.1753899E2,4.321976E2,9.997469E2,-3.763904E1,-5.011724E2,-3.1767017E2,-2.262992E1,2.7454807E2,5.602257E2,8.495026E2,6.1894314E1,-2.7242533E1,-2.2621588E1,-1.7068302E1,-2.3284575E2,-9.901733E1,3.4716717E1,1.7787228E2,3.3971057E2,2.4677748E1,3.1125763E1,3.831217E1,4.7014442E1,-2.4214172E0,-1.1783943E1,-5.3502555E0,6.7105165E0,4.1303763E-1,5.0198846E0,9.426058E0,-2.2350547E0,1.7267958E1,-8.2734984E-1],"categories":[],"categories_nodes":[],"categories_segments":[],"categories_sizes":[],"default_left":[0,0,0,0,0,0,0,0,0,0,0,0,0,0,0,0,0,0,0,0,0,0,0,0,0,0,0,0,0,0,0,0,0,0,0,0,0],"id":8,"left_children":[1,3,5,7,9,11,13,-1,15,17,19,21,23,25,-1,-1,-1,-1,27,29,31,33,35,-1,-1,-1,-1,-1,-1,-1,-1,-1,-1,-1,-1,-1,-1],"loss_changes":[2.7209142E8,2.2239208E7,3.015216E7,4.218256E6,6.199051E6,4.892084E6,4.422592E6,0E0,1.72892E5,3.42612E5,4.8091866E5,6.57734E5,2.617E5,1.2712E4,0E0,0E0,0E0,0E0,1.41875E4,1.01920875E5,1.0864282E5,1.22194375E5,1.40541E5,0E0,0E0,0E0,0E0,0E0,0E0,0E0,0E0,0E0,0E0,0E0,0E0,0E0,0E0],"parents":[2147483647,0,0,1,1,2,2,3,3,4,4,5,5,6,6,8,8,9,9,10,10,11,11,12,12,13,13,18,18,19,19,20,20,21,21,22,22],"right_children":[2,4,6,8,10,12,14,-1,16,18,20,22,24,26,-1,-1,-1,-1,28,30,32,34,36,-1,-1,-1,-1,-1,-1,-1,-1,-1,-1,-1,-1,-1,-1],"split_conditions":[2.5550374E3,1.7828551E3,3.4450593E3,1.4179385E3,2.1095798E3,3.0137327E3,3.9302573E3,-3.763904E1,1.6269744E3,1.9553892E3,2.2960383E3,2.7644312E3,3.2243743E3,3.7059038E3,6.1894314E1,-2.7242533E1,-2.2621588E1,-1.7068302E1,1.5994767E3,3.908496E3,2.4722412E3,3.183599E3,3.489565E3,2.4677748E1,3.1125763E1,3.831217E1,4.7014442E1,-2.4214172E0,-1.1783943E1,-5.3502555E0,6.7105165E0,4.1303763E-1,5.0198846E0,9.426058E0,-2.2350547E0,1.7267958E1,-8.2734984E-1],"split_indices":[0,0,0,0,0,0,0,0,0,0,0,0,0,0,0,0,0,0,3,4,0,7,7,0,0,0,0,0,0,0,0,0,0,0,0,0,0],"split_type":[0,0,0,0,0,0,0,0,0,0,0,0,0,0,0,0,0,0,0,0,0,0,0,0,0,0,0,0,0,0,0,0,0,0,0,0,0],"sum_hessian":[1.027E3,6.26E2,4.01E2,3.09E2,3.17E2,2.49E2,1.52E2,1.13E2,1.96E2,2.09E2,1.08E2,1.13E2,1.36E2,9.6E1,5.6E1,9.8E1,9.8E1,1.61E2,4.8E1,4.6E1,6.2E1,4.7E1,6.6E1,7E1,6.6E1,5.5E1,4.1E1,1E0,4.7E1,4.5E1,1E0,4.5E1,1.7E1,4.5E1,2E0,6.5E1,1E0],"tree_param":{"num_deleted":"0","num_feature":"8","num_nodes":"37","size_leaf_vector":"1"}},{"base_weights":[6.8774505E0,-3.7306165E2,6.39094E2,-5.440711E2,-1.747014E2,4.1151028E2,9.4421326E2,-3.526418E1,-4.5177887E2,-2.9136395E2,-2.6426445E1,2.522794E2,5.0248456E2,3.7576622E1,1.127616E3,-2.4681112E1,-3.9406232E2,-1.5689013E1,-2.1346848E2,-7.698088E1,7.882405E1,1.6172942E2,2.8915695E2,2.2320112E1,5.529101E2,5.0615997E1,6.79632E1,-1.9812489E1,-4.601651E0,-4.0761905E0,-1.1098166E1,-4.238123E0,8.717261E0,4.6652765E0,1.9021912E-1,9.521728E0,2.830528E0,-1.0297974E0,1.4752802E1,2.8247742E1,1.0797187E1],"categories":[],"categories_nodes":[],"categories_segments":[],"categories_sizes":[],"default_left":[0,0,0,0,0,0,0,0,0,0,0,0,0,0,0,0,0,0,0,0,0,0,0,0,0,0,0,0,0,0,0,0,0,0,0,0,0,0,0,0,0],"id":9,"left_children":[1,3,5,7,9,11,13,-1,15,17,19,21,23,-1,25,-1,27,-1,29,31,33,35,37,-1,39,-1,-1,-1,-1,-1,-1,-1,-1,-1,-1,-1,-1,-1,-1,-1,-1],"loss_changes":[2.4380506E8,2.141116E7,2.6068144E7,4.740104E6,5.09525E6,3.060132E6,4.87736E6,0E0,3.34376E5,2.21128E5,7.031031E5,2.270545E5,1.46268E5,0E0,7.87344E5,0E0,2.7617E4,0E0,2.6738875E4,1.888365E5,4.636003E4,6.7673125E4,1.102305E5,0E0,1.58052E5,0E0,0E0,0E0,0E0,0E0,0E0,0E0,0E0,0E0,0E0,0E0,0E0,0E0,0E0,0E0,0E0],"parents":[2147483647,0,0,1,1,2,2,3,3,4,4,5,5,6,6,8,8,9,9,10,10,11,11,12,12,14,14,16,16,18,18,19,19,20,20,21,21,22,22,24,24],"right_children":[2,4,6,8,10,12,14,-1,16,18,20,22,24,-1,26,-1,28,-1,30,32,34,36,38,-1,40,-1,-1,-1,-1,-1,-1,-1,-1,-1,-1,-1,-1,-1,-1,-1,-1],"split_conditions":[2.5902632E3,1.8102971E3,3.4220498E3,1.4826167E3,2.0924668E3,2.9501184E3,3.8125159E3,-3.526418E1,1.6524574E3,1.9613157E3,2.372202E3,2.688195E3,3.1724563E3,3.7576622E1,4.2983066E3,-2.4681112E1,1.9996306E3,-1.5689013E1,1.8218596E3,2.6527131E3,3.162668E3,2.7149453E3,2.4715186E3,2.2320112E1,3.7085022E3,5.0615997E1,6.79632E1,-1.9812489E1,-4.601651E0,-4.0761905E0,-1.1098166E1,-4.238123E0,8.717261E0,4.6652765E0,1.9021912E-1,9.521728E0,2.830528E0,-1.0297974E0,1.4752802E1,2.8247742E1,1.0797187E1],"split_indices":[0,0,0,0,0,0,0,0,0,0,0,0,0,0,0,0,6,0,2,5,7,2,1,0,6,0,0,0,0,0,0,0,0,0,0,0,0,0,0,0,0],"split_type":[0,0,0,0,0,0,0,0,0,0,0,0,0,0,0,0,0,0,0,0,0,0,0,0,0,0,0,0,0,0,0,0,0,0,0,0,0,0,0,0,0],"sum_hessian":[1.013E3,6.33E2,3.8E2,3.39E2,2.94E2,2.19E2,1.61E2,1.21E2,2.18E2,1.64E2,1.3E2,8.1E1,1.38E2,8.1E1,8E1,1.22E2,9.6E1,1.25E2,3.9E1,8.8E1,4.2E1,2.5E1,5.6E1,7E1,6.8E1,5.7E1,2.3E1,9.5E1,1E0,3E0,3.6E1,8.6E1,2E0,3.5E1,7E0,1.9E1,6E0,1E0,5.5E1,6.5E1,3E0],"tree_param":{"num_deleted":"0","num_feature":"8","num_nodes":"41","size_leaf_vector":"1"}},{"base_weights":[-2.177605E0,-3.5675064E2,6.1620355E2,-5.1397705E2,-1.7179143E2,4.310219E2,9.78737E2,-3.4174496E1,-4.3443015E2,-2.7027863E2,-1.1542341E1,2.8368936E2,5.6269275E2,4.2715717E1,6.1719482E1,-2.3611149E1,-1.8831013E1,-1.4946245E1,-1.9418822E2,-5.8116848E1,6.5991325E1,1.7677486E2,3.5010318E2,2.491917E1,6.399217E2,-7.228566E0,-1.06538925E1,-3.1216238E0,6.315204E0,4.3763647E0,-3.286799E-1,9.069527E0,-1.0040528E0,1.7786192E1,-1.3646668E0,3.228344E1,8.095795E0],"categories":[],"categories_nodes":[],"categories_segments":[],"categories_sizes":[],"default_left":[0,0,0,0,0,0,0,0,0,0,0,0,0,0,0,0,0,0,0,0,0,0,0,0,0,0,0,0,0,0,0,0,0,0,0,0,0],"id":10,"left_children":[1,3,5,7,9,11,13,-1,15,17,19,21,23,-1,-1,-1,-1,-1,25,27,29,31,33,-1,35,-1,-1,-1,-1,-1,-1,-1,-1,-1,-1,-1,-1],"loss_changes":[2.2562043E8,1.8930336E7,2.4753584E7,4.463E6,4.76319E6,4.690224E6,2.953376E6,0E0,3.53056E5,3.49558E5,4.2272194E5,7.90182E5,3.31692E5,0E0,0E0,0E0,0E0,0E0,1.980625E4,6.598556E4,6.933659E4,4.7256375E4,1.6456E5,0E0,4.9298E4,0E0,0E0,0E0,0E0,0E0,0E0,0E0,0E0,0E0,0E0,0E0,0E0],"parents":[2147483647,0,0,1,1,2,2,3,3,4,4,5,5,6,6,8,8,9,9,10,10,11,11,12,12,18,18,19,19,20,20,21,21,22,22,24,24],"right_children":[2,4,6,8,10,12,14,-1,16,18,20,22,24,-1,-1,-1,-1,-1,26,28,30,32,34,-1,36,-1,-1,-1,-1,-1,-1,-1,-1,-1,-1,-1,-1],"split_conditions":[2.5747542E3,1.8102971E3,3.543737E3,1.3690405E3,2.157657E3,3.077868E3,4.11272E3,-3.4174496E1,1.6524574E3,1.9613157E3,2.372202E3,2.7921172E3,3.336594E3,4.2715717E1,6.1719482E1,-2.3611149E1,-1.8831013E1,-1.4946245E1,1.8319548E3,2.6527131E3,3.162668E3,3.302991E3,3.5101384E3,2.491917E1,3.8065718E3,-7.228566E0,-1.06538925E1,-3.1216238E0,6.315204E0,4.3763647E0,-3.286799E-1,9.069527E0,-1.0040528E0,1.7786192E1,-1.3646668E0,3.228344E1,8.095795E0],"split_indices":[0,0,0,0,0,0,5,0,0,0,0,0,0,0,0,0,0,0,4,5,7,5,7,0,6,0,0,0,0,0,0,0,0,0,0,0,0],"split_type":[0,0,0,0,0,0,0,0,0,0,0,0,0,0,0,0,0,0,0,0,0,0,0,0,0,0,0,0,0,0,0,0,0,0,0,0,0],"sum_hessian":[1.027E3,6.53E2,3.74E2,3.52E2,3.01E2,2.49E2,1.25E2,1.1E2,2.42E2,1.86E2,1.15E2,1.19E2,1.3E2,8.7E1,3.8E1,1.42E2,1E2,1.33E2,5.3E1,7.2E1,4.3E1,4.7E1,7.2E1,7.5E1,5.5E1,1.7E1,3.6E1,7.1E1,1E0,3.3E1,1E1,4.6E1,1E0,7.1E1,1E0,5.4E1,1E0],"tree_param":{"num_deleted":"0","num_feature":"8","num_nodes":"37","size_leaf_vector":"1"}},{"base_weights":[6.0989985E0,-3.3356088E2,5.7785864E2,-5.093424E2,-1.7405089E2,4.4403732E2,9.467798E2,-3.258207E1,-4.3388898E2,-2.6797766E2,-5.2073556E-1,2.8390176E2,5.522997E2,4.120196E1,5.588147E1,-2.4395815E1,-1.9856853E1,-2.8862354E2,-1.6581789E2,-3.715086E1,8.845302E1,2.0454669E2,3.3019858E2,4.8355252E2,3.0606144E1,-1.4479398E1,-2.8997438E0,-2.0378215E0,-8.573822E0,-6.986791E-1,-1.0479156E1,5.1585975E0,-5.1469727E0,1.0591434E1,-2.8965027E0,1.6775217E1,-1.0301026E0,2.4484335E1,-3.3291015E-1],"categories":[],"categories_nodes":[],"categories_segments":[],"categories_sizes":[],"default_left":[0,0,0,0,0,0,0,0,0,0,0,0,0,0,0,0,0,0,0,0,0,0,0,0,0,0,0,0,0,0,0,0,0,0,0,0,0,0,0],"id":11,"left_children":[1,3,5,7,9,11,13,-1,15,17,19,21,23,-1,-1,-1,-1,25,27,29,31,33,35,37,-1,-1,-1,-1,-1,-1,-1,-1,-1,-1,-1,-1,-1,-1,-1],"loss_changes":[1.9750384E8,1.7800168E7,1.829064E7,2.97056E6,5.476367E6,4.697468E6,1.176048E6,0E0,2.05336E5,4.11942E5,3.911214E5,3.54956E5,3.86712E5,0E0,0E0,0E0,0E0,2.3242E4,2.061025E4,3.367748E5,1.09218625E5,9.828175E4,1.390615E5,2.49836E5,0E0,0E0,0E0,0E0,0E0,0E0,0E0,0E0,0E0,0E0,0E0,0E0,0E0,0E0,0E0],"parents":[2147483647,0,0,1,1,2,2,3,3,4,4,5,5,6,6,8,8,9,9,10,10,11,11,12,12,17,17,18,18,19,19,20,20,21,21,22,22,23,23],"right_children":[2,4,6,8,10,12,14,-1,16,18,20,22,24,-1,-1,-1,-1,26,28,30,32,34,36,38,-1,-1,-1,-1,-1,-1,-1,-1,-1,-1,-1,-1,-1,-1,-1],"split_conditions":[2.5876912E3,1.7721024E3,3.6667175E3,1.3356523E3,2.1247766E3,3.077868E3,4.036116E3,-3.258207E1,1.5865354E3,2.0132045E3,2.4678044E3,2.8156018E3,3.336594E3,4.120196E1,5.588147E1,-2.4395815E1,-1.9856853E1,2.2395425E3,1.832396E3,2.400461E3,3.5908838E3,3.336594E3,3.489565E3,4.0375476E3,3.0606144E1,-1.4479398E1,-2.8997438E0,-2.0378215E0,-8.573822E0,-6.986791E-1,-1.0479156E1,5.1585975E0,-5.1469727E0,1.0591434E1,-2.8965027E0,1.6775217E1,-1.0301026E0,2.4484335E1,-3.3291015E-1],"split_indices":[1,1,1,1,2,1,5,0,1,1,5,1,1,0,0,0,0,3,2,7,3,2,7,3,0,0,0,0,0,0,0,0,0,0,0,0,0,0,0],"split_type":[0,0,0,0,0,0,0,0,0,0,0,0,0,0,0,0,0,0,0,0,0,0,0,0,0,0,0,0,0,0,0,0,0,0,0,0,0,0,0],"sum_hessian":[1.015E3,6.37E2,3.78E2,3.02E2,3.35E2,2.79E2,9.9E1,1.02E2,2E2,2.17E2,1.18E2,1.14E2,1.65E2,6.1E1,3.8E1,7.6E1,1.24E2,1.79E2,3.8E1,8.4E1,3.4E1,4.4E1,7E1,8.1E1,8.4E1,1.78E2,1E0,2E0,3.6E1,7.5E1,9E0,3.2E1,2E0,4.3E1,1E0,6.9E1,1E0,8E1,1E0],"tree_param":{"num_deleted":"0","num_feature":"8","num_nodes":"39","size_leaf_vector":"1"}},{"base_weights":[-9.654427E0,-3.1183105E2,5.740647E2,-4.577634E2,-1.3079007E2,4.2973654E2,9.0811224E2,-5.993832E2,-3.7745425E2,-2.2966971E2,1.0719802E1,3.1392905E2,5.250523E2,4.12628E1,5.766833E1,-3.2728424E1,-2.6630396E1,-2.0555075E1,-1.5749608E1,-1.2682748E1,-1.5031374E2,-4.9727104E1,7.005473E1,2.0104002E2,3.593939E2,5.309459E2,9.071549E1,-7.991037E0,6.462201E0,-2.720921E0,6.028357E0,4.487763E0,2.6717225E-1,1.0397664E1,-8.502747E-1,1.8155027E1,1.6642334E0,2.2683933E1,2.9359007E1,-3.2458496E-1,7.1282473E0],"categories":[],"categories_nodes":[],"categories_segments":[],"categories_sizes":[],"default_left":[0,0,0,0,0,0,0,0,0,0,0,0,0,0,0,0,0,0,0,0,0,0,0,0,0,0,0,0,0,0,0,0,0,0,0,0,0,0,0,0,0],"id":12,"left_children":[1,3,5,7,9,11,13,15,17,19,21,23,25,-1,-1,-1,-1,-1,-1,-1,27,29,31,33,35,37,39,-1,-1,-1,-1,-1,-1,-1,-1,-1,-1,-1,-1,-1,-1],"loss_changes":[1.8150411E8,1.7852708E7,1.653232E7,4.038776E6,4.256165E6,2.561624E6,1.181864E6,1.45168E5,3.79112E5,3.02576E5,4.553968E5,5.12851E5,2.94852E5,0E0,0E0,0E0,0E0,0E0,0E0,0E0,1.3759731E5,5.6892E4,8.111056E4,5.6295625E4,8.4616E4,3.07156E5,1.6045904E4,0E0,0E0,0E0,0E0,0E0,0E0,0E0,0E0,0E0,0E0,0E0,0E0,0E0,0E0],"parents":[2147483647,0,0,1,1,2,2,3,3,4,4,5,5,6,6,7,7,8,8,9,9,10,10,11,11,12,12,20,20,21,21,22,22,23,23,24,24,25,25,26,26],"right_children":[2,4,6,8,10,12,14,16,18,20,22,24,26,-1,-1,-1,-1,-1,-1,-1,28,30,32,34,36,38,40,-1,-1,-1,-1,-1,-1,-1,-1,-1,-1,-1,-1,-1,-1],"split_conditions":[2.688195E3,1.827462E3,3.5908838E3,1.5143749E3,2.157657E3,3.1301648E3,4.2983066E3,1.2663842E3,1.702842E3,2.0144182E3,2.372202E3,2.881158E3,4.000651E3,4.12628E1,5.766833E1,-3.2728424E1,-2.6630396E1,-2.0555075E1,-1.5749608E1,-1.2682748E1,2.7149453E3,2.881158E3,2.7020537E3,3.435054E3,3.244079E3,3.336594E3,3.3916943E3,-7.991037E0,6.462201E0,-2.720921E0,6.028357E0,4.487763E0,2.6717225E-1,1.0397664E1,-8.502747E-1,1.8155027E1,1.6642334E0,2.2683933E1,2.9359007E1,-3.2458496E-1,7.1282473E0],"split_indices":[0,0,0,0,0,0,0,0,0,0,0,0,3,0,0,0,0,0,0,0,3,3,5,3,1,0,0,0,0,0,0,0,0,0,0,0,0,0,0,0,0],"split_type":[0,0,0,0,0,0,0,0,0,0,0,0,0,0,0,0,0,0,0,0,0,0,0,0,0,0,0,0,0,0,0,0,0,0,0,0,0,0,0,0,0],"sum_hessian":[1.027E3,6.77E2,3.5E2,3.74E2,3.03E2,2.46E2,1.04E2,1.33E2,2.41E2,1.78E2,1.25E2,1.13E2,1.33E2,8.1E1,2.3E1,6.8E1,6.5E1,1.53E2,8.8E1,1.35E2,4.3E1,6.2E1,6.3E1,3.4E1,7.9E1,1.31E2,2E0,4.2E1,1E0,6.1E1,1E0,4.8E1,1.5E1,3.3E1,1E0,7.8E1,1E0,5.9E1,7.2E1,1E0,1E0],"tree_param":{"num_deleted":"0","num_feature":"8","num_nodes":"41","size_leaf_vector":"1"}},{"base_weights":[1.3866065E-1,-3.242862E2,4.8795963E2,-4.436339E2,-1.8051147E2,3.4115622E2,8.062341E2,-2.883791E1,-3.825717E2,-2.460093E2,-3.8049385E1,1.937403E2,4.469413E2,3.296718E1,5.0221455E1,-2.0502537E1,-3.4025333E2,-2.6675165E2,-1.8463573E2,-2.1380274E1,-1.856958E2,1.290989E2,2.6292117E2,3.8669302E2,5.0536838E2,-1.7102987E1,-4.125772E0,-1.3490878E1,-4.676172E0,-2.3192232E0,-9.607674E0,-2.5105176E0,3.2377598E0,-3.3475873E0,-1.0502907E1,9.547103E0,5.037425E0,1.8395609E1,8.770761E0,2.6597721E1,1.7264988E1,3.018432E1,2.2194576E1],"categories":[],"categories_nodes":[],"categories_segments":[],"categories_sizes":[],"default_left":[0,0,0,0,0,0,0,0,0,0,0,0,0,0,0,0,0,0,0,0,0,0,0,0,0,0,0,0,0,0,0,0,0,0,0,0,0,0,0,0,0,0,0],"id":13,"left_children":[1,3,5,7,9,11,13,-1,15,17,19,21,23,-1,-1,-1,25,27,29,31,33,35,37,39,41,-1,-1,-1,-1,-1,-1,-1,-1,-1,-1,-1,-1,-1,-1,-1,-1,-1,-1],"loss_changes":[1.628508E8,1.0524292E7,1.8928424E7,2.518776E6,2.621968E6,4.326628E6,3.093304E6,0E0,1.32592E5,1.96443E5,2.1753188E5,5.026905E5,3.81878E5,0E0,0E0,0E0,1.7402E4,5.0182E4,4.513275E4,2.0688133E5,1.19721875E4,9.297275E4,4.59141E5,3.27407E5,2.15572E5,0E0,0E0,0E0,0E0,0E0,0E0,0E0,0E0,0E0,0E0,0E0,0E0,0E0,0E0,0E0,0E0,0E0,0E0],"parents":[2147483647,0,0,1,1,2,2,3,3,4,4,5,5,6,6,8,8,9,9,10,10,11,11,12,12,16,16,17,17,18,18,19,19,20,20,21,21,22,22,23,23,24,24],"right_children":[2,4,6,8,10,12,14,-1,16,18,20,22,24,-1,-1,-1,26,28,30,32,34,36,38,40,42,-1,-1,-1,-1,-1,-1,-1,-1,-1,-1,-1,-1,-1,-1,-1,-1,-1,-1],"split_conditions":[2.4678044E3,1.7911675E3,3.5198542E3,1.3453429E3,2.0774885E3,3.0145166E3,3.9568433E3,-2.883791E1,1.6419313E3,1.9260522E3,2.400461E3,2.7534978E3,3.2463237E3,3.296718E1,5.0221455E1,-2.0502537E1,1.8486031E3,2.2019114E3,1.832396E3,2.327469E3,2.076243E3,2.4670188E3,2.756877E3,2.9815986E3,3.3358784E3,-1.7102987E1,-4.125772E0,-1.3490878E1,-4.676172E0,-2.3192232E0,-9.607674E0,-2.5105176E0,3.2377598E0,-3.3475873E0,-1.0502907E1,9.547103E0,5.037425E0,1.8395609E1,8.770761E0,2.6597721E1,1.7264988E1,3.018432E1,2.2194576E1],"split_indices":[5,5,5,5,5,5,5,0,5,5,7,5,5,0,0,0,2,4,2,5,2,3,4,3,6,0,0,0,0,0,0,0,0,0,0,0,0,0,0,0,0,0,0],"split_type":[0,0,0,0,0,0,0,0,0,0,0,0,0,0,0,0,0,0,0,0,0,0,0,0,0,0,0,0,0,0,0,0,0,0,0,0,0,0,0,0,0,0,0],"sum_hessian":[1.027E3,6.17E2,4.1E2,3.36E2,2.81E2,2.82E2,1.28E2,1.03E2,2.33E2,1.92E2,8.9E1,1.19E2,1.63E2,7.6E1,5.2E1,1.36E2,9.7E1,1.41E2,5.1E1,8.1E1,8E0,6.3E1,5.6E1,8.4E1,7.9E1,9.6E1,1E0,1.38E2,3E0,3E0,4.8E1,6.1E1,2E1,2E0,6E0,1.8E1,4.5E1,2.4E1,3.2E1,1.6E1,6.8E1,2.7E1,5.2E1],"tree_param":{"num_deleted":"0","num_feature":"8","num_nodes":"43","size_leaf_vector":"1"}},{"base_weights":[-6.943028E0,-2.879751E2,5.14091E2,-4.07523E2,-1.0710958E2,3.917685E2,8.3212604E2,-5.4568176E2,-3.397535E2,-2.051569E2,-1.3314991E0,2.957083E2,5.0582697E2,3.731454E1,5.0531036E1,-3.0389353E1,-2.4051582E1,-1.860346E1,-1.4115837E1,-2.2928603E2,-1.6382353E2,-5.256459E1,5.947609E1,1.2949895E2,3.2013153E2,4.3929465E2,2.7703003E1,-1.1597476E1,-4.002751E0,-6.5084567E0,-9.320404E0,-3.5647457E0,-9.062505E-1,3.8266304E0,2.1707356E-1,1.0123794E1,1.8137219E0,1.2986783E1,1.7449347E1,2.2551662E1,4.4697146E0],"categories":[],"categories_nodes":[],"categories_segments":[],"categories_sizes":[],"default_left":[0,0,0,0,0,0,0,0,0,0,0,0,0,0,0,0,0,0,0,0,0,0,0,0,0,0,0,0,0,0,0,0,0,0,0,0,0,0,0,0,0],"id":14,"left_children":[1,3,5,7,9,11,13,15,17,19,21,23,25,-1,-1,-1,-1,-1,-1,27,29,31,33,35,37,39,-1,-1,-1,-1,-1,-1,-1,-1,-1,-1,-1,-1,-1,-1,-1],"loss_changes":[1.4877173E8,1.4226936E7,1.3523416E7,3.531692E6,2.737739E6,2.688152E6,7.47248E5,2.25584E5,3.94252E5,9.9073E4,4.018925E5,5.39033E5,1.32064E5,0E0,0E0,0E0,0E0,0E0,0E0,1.48195E4,1.677925E4,4.3862297E4,5.515161E4,1.2872006E5,1.25457E5,1.81477E5,0E0,0E0,0E0,0E0,0E0,0E0,0E0,0E0,0E0,0E0,0E0,0E0,0E0,0E0,0E0],"parents":[2147483647,0,0,1,1,2,2,3,3,4,4,5,5,6,6,7,7,8,8,9,9,10,10,11,11,12,12,19,19,20,20,21,21,22,22,23,23,24,24,25,25],"right_children":[2,4,6,8,10,12,14,16,18,20,22,24,26,-1,-1,-1,-1,-1,-1,28,30,32,34,36,38,40,-1,-1,-1,-1,-1,-1,-1,-1,-1,-1,-1,-1,-1,-1,-1],"split_conditions":[2.6218018E3,1.8471244E3,3.7059038E3,1.4826167E3,2.157657E3,3.2243743E3,4.216365E3,1.2504386E3,1.7154608E3,1.9553892E3,2.372202E3,2.7644312E3,3.4220498E3,3.731454E1,5.0531036E1,-3.0389353E1,-2.4051582E1,-1.860346E1,-1.4115837E1,2.0132045E3,1.8319548E3,2.2960383E3,2.688195E3,2.608267E3,2.9501184E3,3.7085022E3,2.7703003E1,-1.1597476E1,-4.002751E0,-6.5084567E0,-9.320404E0,-3.5647457E0,-9.062505E-1,3.8266304E0,2.1707356E-1,1.0123794E1,1.8137219E0,1.2986783E1,1.7449347E1,2.2551662E1,4.4697146E0],"split_indices":[0,0,0,0,0,0,0,0,0,0,0,0,0,0,0,0,0,0,0,1,4,0,2,2,0,6,0,0,0,0,0,0,0,0,0,0,0,0,0,0,0],"split_type":[0,0,0,0,0,0,0,0,0,0,0,0,0,0,0,0,0,0,0,0,0,0,0,0,0,0,0,0,0,0,0,0,0,0,0,0,0,0,0,0,0],"sum_hessian":[1.014E3,6.59E2,3.55E2,3.96E2,2.63E2,2.58E2,9.7E1,1.28E2,2.68E2,1.36E2,1.27E2,1.42E2,1.16E2,6.9E1,2.8E1,6.1E1,6.7E1,1.68E2,1E2,8.3E1,5.3E1,6.9E1,5.8E1,1.9E1,1.23E2,5.3E1,6.3E1,8.1E1,2E0,2.4E1,2.9E1,4.4E1,2.5E1,4.4E1,1.4E1,1E1,9E0,4.3E1,8E1,5.1E1,2E0],"tree_param":{"num_deleted":"0","num_feature":"8","num_nodes":"41","size_leaf_vector":"1"}},{"base_weights":[-1.6072565E-1,-2.7237427E2,4.8426276E2,-3.6637897E2,-6.2507687E1,3.697351E2,8.143093E2,-5.231222E2,-3.024654E2,-1.6274687E2,7.8434467E0,2.733552E2,4.9253085E2,3.5977108E1,5.131663E1,-2.8925766E1,-2.3484785E1,-1.7718908E1,-1.2681158E1,-1.862135E2,-1.2563358E2,-2.78646E1,8.455197E1,1.9447752E2,3.3079083E2,4.277541E2,2.691773E1,-2.5464761E0,-9.539465E0,-5.5372286E0,-1.0852979E1,-2.0051117E0,2.1028247E0,4.9408135E0,1.3012356E0,1.0473363E1,3.5635917E0,1.6955488E1,1.0912071E1,2.1950218E1,4.3207235E0],"categories":[],"categories_nodes":[],"categories_segments":[],"categories_sizes":[],"default_left":[0,0,0,0,0,0,0,0,0,0,0,0,0,0,0,0,0,0,0,0,0,0,0,0,0,0,0,0,0,0,0,0,0,0,0,0,0,0,0,0,0],"id":15,"left_children":[1,3,5,7,9,11,13,15,17,19,21,23,25,-1,-1,-1,-1,-1,-1,27,29,31,33,35,37,39,-1,-1,-1,-1,-1,-1,-1,-1,-1,-1,-1,-1,-1,-1,-1],"loss_changes":[1.3635013E8,1.3037332E7,1.376032E7,4.420008E6,1.4539762E6,3.155508E6,1.170332E6,1.1596E5,7.39242E5,5.063375E4,3.365276E5,6.5147E5,1.28882E5,0E0,0E0,0E0,0E0,0E0,0E0,2.1234875E4,2.4966562E4,7.3562734E4,2.99875E4,1.125015E5,1.0259E4,1.73272E5,0E0,0E0,0E0,0E0,0E0,0E0,0E0,0E0,0E0,0E0,0E0,0E0,0E0,0E0,0E0],"parents":[2147483647,0,0,1,1,2,2,3,3,4,4,5,5,6,6,7,7,8,8,9,9,10,10,11,11,12,12,19,19,20,20,21,21,22,22,23,23,24,24,25,25],"right_children":[2,4,6,8,10,12,14,16,18,20,22,24,26,-1,-1,-1,-1,-1,-1,28,30,32,34,36,38,40,-1,-1,-1,-1,-1,-1,-1,-1,-1,-1,-1,-1,-1,-1,-1],"split_conditions":[2.6218018E3,1.9109142E3,3.7059038E3,1.5143749E3,2.1964812E3,3.2243743E3,4.274743E3,1.2504386E3,1.7154608E3,2.045187E3,2.4722412E3,2.9703555E3,3.4220498E3,3.5977108E1,5.131663E1,-2.8925766E1,-2.3484785E1,-1.7718908E1,-1.2681158E1,1.8121713E3,2.6286484E3,3.0137327E3,2.6765376E3,3.435054E3,3.489565E3,3.5198542E3,2.691773E1,-2.5464761E0,-9.539465E0,-5.5372286E0,-1.0852979E1,-2.0051117E0,2.1028247E0,4.9408135E0,1.3012356E0,1.0473363E1,3.5635917E0,1.6955488E1,1.0912071E1,2.1950218E1,4.3207235E0],"split_indices":[0,0,0,0,1,0,0,0,0,0,0,0,0,0,0,0,0,0,0,5,4,4,5,4,7,5,0,0,0,0,0,0,0,0,0,0,0,0,0,0,0],"split_type":[0,0,0,0,0,0,0,0,0,0,0,0,0,0,0,0,0,0,0,0,0,0,0,0,0,0,0,0,0,0,0,0,0,0,0,0,0,0,0,0,0],"sum_hessian":[1.032E3,6.61E2,3.71E2,4.56E2,2.05E2,2.77E2,9.4E1,1.3E2,3.26E2,8.4E1,1.21E2,1.57E2,1.2E2,6.8E1,2.6E1,5.9E1,7.1E1,1.55E2,1.71E2,4.9E1,3.5E1,8.3E1,3.8E1,6.8E1,8.9E1,5.4E1,6.6E1,2E0,4.7E1,3.2E1,3E0,7.1E1,1.2E1,3E1,8E0,6E1,8E0,8.1E1,8E0,5.2E1,2E0],"tree_param":{"num_deleted":"0","num_feature":"8","num_nodes":"41","size_leaf_vector":"1"}},{"base_weights":[-1.188111E1,-2.6263132E2,4.591083E2,-3.7016034E2,-1.01763664E2,2.9893015E2,6.571719E2,-4.9120016E2,-3.1006583E2,-1.7940448E2,-9.408517E0,2.136446E2,3.6444104E2,2.7540152E1,8.2923596E2,-2.7946772E1,-2.22367E1,-1.7530188E1,-2.6992194E2,-1.9738501E2,-1.0974249E2,-5.0353115E1,5.1377663E1,1.3117122E2,2.375367E2,3.689193E2,1.5353717E2,3.647177E1,5.0524536E1,-1.3615766E1,-6.0533175E0,-9.985199E0,-5.3445363E0,-6.0741386E0,6.3551517E0,-2.7473772E0,3.8348756E0,3.391211E0,-2.1722398E0,9.602403E0,1.0949681E0,1.2163974E1,-3.537195E0,1.6609404E1,2.0997274E1,-1.3604126E0,1.1142753E1],"categories":[],"categories_nodes":[],"categories_segments":[],"categories_sizes":[],"default_left":[0,0,0,0,0,0,0,0,0,0,0,0,0,0,0,0,0,0,0,0,0,0,0,0,0,0,0,0,0,0,0,0,0,0,0,0,0,0,0,0,0,0,0,0,0,0,0],"id":16,"left_children":[1,3,5,7,9,11,13,15,17,19,21,23,25,-1,27,-1,-1,-1,29,31,33,35,37,39,41,43,45,-1,-1,-1,-1,-1,-1,-1,-1,-1,-1,-1,-1,-1,-1,-1,-1,-1,-1,-1,-1],"loss_changes":[1.19992776E8,1.1430868E7,1.1002632E7,2.735408E6,1.9128432E6,1.022804E6,2.416712E6,1.60586E5,3.41494E5,1.599595E5,3.0871753E5,1.4224275E5,4.7252E4,0E0,3.12092E5,0E0,0E0,0E0,1.6553E4,2.577E3,1.04421E5,4.741E4,8.0921734E4,1.42141E5,1.3582675E5,6.1043E4,5.617907E4,0E0,0E0,0E0,0E0,0E0,0E0,0E0,0E0,0E0,0E0,0E0,0E0,0E0,0E0,0E0,0E0,0E0,0E0,0E0,0E0],"parents":[2147483647,0,0,1,1,2,2,3,3,4,4,5,5,6,6,7,7,8,8,9,9,10,10,11,11,12,12,14,14,18,18,19,19,20,20,21,21,22,22,23,23,24,24,25,25,26,26],"right_children":[2,4,6,8,10,12,14,16,18,20,22,24,26,-1,28,-1,-1,-1,30,32,34,36,38,40,42,44,46,-1,-1,-1,-1,-1,-1,-1,-1,-1,-1,-1,-1,-1,-1,-1,-1,-1,-1,-1,-1],"split_conditions":[2.6218018E3,1.8490427E3,3.4291697E3,1.4826167E3,2.157657E3,3.0137327E3,3.908496E3,1.2225062E3,1.6524574E3,2.056274E3,2.372202E3,2.7644312E3,3.6383071E3,2.7540152E1,4.3587373E3,-2.7946772E1,-2.22367E1,-1.7530188E1,1.9996306E3,2.5857283E3,2.3330327E3,3.162668E3,3.162668E3,2.7149453E3,3.489565E3,3.244079E3,3.3916943E3,3.647177E1,5.0524536E1,-1.3615766E1,-6.0533175E0,-9.985199E0,-5.3445363E0,-6.0741386E0,6.3551517E0,-2.7473772E0,3.8348756E0,3.391211E0,-2.1722398E0,9.602403E0,1.0949681E0,1.2163974E1,-3.537195E0,1.6609404E1,2.0997274E1,-1.3604126E0,1.1142753E1],"split_indices":[0,0,0,0,0,0,0,0,0,0,0,0,5,0,0,0,0,0,6,7,2,7,7,2,7,0,0,0,0,0,0,0,0,0,0,0,0,0,0,0,0,0,0,0,0,0,0],"split_type":[0,0,0,0,0,0,0,0,0,0,0,0,0,0,0,0,0,0,0,0,0,0,0,0,0,0,0,0,0,0,0,0,0,0,0,0,0,0,0,0,0,0,0,0,0,0,0],"sum_hessian":[1.014E3,6.62E2,3.52E2,3.96E2,2.66E2,1.96E2,1.56E2,1.29E2,2.67E2,1.44E2,1.22E2,8.7E1,1.09E2,9.9E1,5.7E1,4.8E1,8.1E1,1.29E2,1.38E2,1.13E2,3.1E1,7.3E1,4.9E1,2.1E1,6.6E1,1.06E2,3E0,4E1,1.7E1,1.35E2,3E0,1.09E2,4E0,3E1,1E0,7.1E1,2E0,4.2E1,7E0,1.3E1,8E0,6.5E1,1E0,6.6E1,4E1,1E0,2E0],"tree_param":{"num_deleted":"0","num_feature":"8","num_nodes":"47","size_leaf_vector":"1"}},{"base_weights":[-2.966199E0,-2.6186978E2,4.1063162E2,-3.807275E2,-1.4516519E2,2.6750882E2,6.191713E2,-2.4350418E1,-3.2207385E2,-2.046895E2,-3.7276752E1,1.7412427E2,3.5188547E2,2.5576048E1,7.6474115E2,-1.7812517E1,-1.4653788E1,-2.2164044E2,-1.5869914E2,-5.9677948E1,-3.596768E0,1.1458558E2,2.1418E2,3.1721558E2,1.9656147E1,3.4266247E1,4.5114216E1,-1.1119327E1,-2.7991455E0,-8.702151E0,-6.626514E0,-3.2100217E0,6.196271E0,2.9815936E-1,-3.4958496E0,6.456094E0,-3.879709E0,1.0975765E1,-3.4487672E0,1.6110514E1,4.7467E0],"categories":[],"categories_nodes":[],"categories_segments":[],"categories_sizes":[],"default_left":[0,0,0,0,0,0,0,0,0,0,0,0,0,0,0,0,0,0,0,0,0,0,0,0,0,0,0,0,0,0,0,0,0,0,0,0,0,0,0,0,0],"id":17,"left_children":[1,3,5,7,9,11,13,-1,15,17,19,21,23,-1,25,-1,-1,27,29,31,33,35,37,39,-1,-1,-1,-1,-1,-1,-1,-1,-1,-1,-1,-1,-1,-1,-1,-1,-1],"loss_changes":[1.0986654E8,8.697484E6,1.1623844E7,1.788084E6,2.0474045E6,1.798284E6,2.116124E6,0E0,9.7766E4,1.2542E5,8.654964E4,2.4733275E5,5.1147E4,0E0,1.02568E5,0E0,0E0,5.842E3,6.245E2,6.5249703E4,3.0215791E4,1.4411106E5,1.163595E5,4.9348E4,0E0,0E0,0E0,0E0,0E0,0E0,0E0,0E0,0E0,0E0,0E0,0E0,0E0,0E0,0E0,0E0,0E0],"parents":[2147483647,0,0,1,1,2,2,3,3,4,4,5,5,6,6,8,8,9,9,10,10,11,11,12,12,14,14,17,17,18,18,19,19,20,20,21,21,22,22,23,23],"right_children":[2,4,6,8,10,12,14,-1,16,18,20,22,24,-1,26,-1,-1,28,30,32,34,36,38,40,-1,-1,-1,-1,-1,-1,-1,-1,-1,-1,-1,-1,-1,-1,-1,-1,-1],"split_conditions":[2.5344817E3,1.7466168E3,3.4220498E3,1.3356523E3,2.0924668E3,3.0137327E3,3.864261E3,-2.4350418E1,1.603106E3,1.918362E3,2.3246794E3,2.7644312E3,3.244079E3,2.5576048E1,4.2983066E3,-1.7812517E1,-1.4653788E1,2.5579316E3,2.0144182E3,2.7149453E3,2.6218018E3,3.167687E3,3.489565E3,3.2332747E3,1.9656147E1,3.4266247E1,4.5114216E1,-1.1119327E1,-2.7991455E0,-8.702151E0,-6.626514E0,-3.2100217E0,6.196271E0,2.9815936E-1,-3.4958496E0,6.456094E0,-3.879709E0,1.0975765E1,-3.4487672E0,1.6110514E1,4.7467E0],"split_indices":[0,0,0,0,0,0,0,0,0,0,0,0,0,0,0,0,0,3,0,2,1,7,7,0,0,0,0,0,0,0,0,0,0,0,0,0,0,0,0,0,0],"split_type":[0,0,0,0,0,0,0,0,0,0,0,0,0,0,0,0,0,0,0,0,0,0,0,0,0,0,0,0,0,0,0,0,0,0,0,0,0,0,0,0,0],"sum_hessian":[1.024E3,6.3E2,3.94E2,3.11E2,3.19E2,2.35E2,1.59E2,1.08E2,2.03E2,2.05E2,1.14E2,1.13E2,1.22E2,9.4E1,6.5E1,8.8E1,1.15E2,1.47E2,5.8E1,6.8E1,4.6E1,4.7E1,6.6E1,7.1E1,5.1E1,4.5E1,2E1,1.46E2,1E0,3.3E1,2.5E1,6.7E1,1E0,4.1E1,5E0,4.4E1,3E0,6.5E1,1E0,6.9E1,2E0],"tree_param":{"num_deleted":"0","num_feature":"8","num_nodes":"41","size_leaf_vector":"1"}},{"base_weights":[9.176132E-1,-2.4734335E2,3.9245126E2,-3.7036923E2,-1.4517159E2,2.5402228E2,6.28309E2,-4.6487555E2,-3.132921E2,-2.0225453E2,-3.9107212E1,1.3608722E2,3.132313E2,2.567781E1,7.488399E2,-2.6168446E1,-2.1365828E1,-1.7404657E1,-1.4192215E1,-1.1017265E1,-1.7450635E2,-7.0212555E1,1.6369005E1,9.621756E1,1.7464647E2,1.3571811E1,3.713176E2,3.414023E1,4.6451687E1,-2.7519271E0,-8.892001E0,-3.7105427E0,6.0413637E0,5.311202E0,1.2407624E-1,5.928484E0,3.0640748E-1,9.053386E0,-2.3761353E0,1.8897245E1,-1.81781E0],"categories":[],"categories_nodes":[],"categories_segments":[],"categories_sizes":[],"default_left":[0,0,0,0,0,0,0,0,0,0,0,0,0,0,0,0,0,0,0,0,0,0,0,0,0,0,0,0,0,0,0,0,0,0,0,0,0,0,0,0,0],"id":18,"left_children":[1,3,5,7,9,11,13,15,17,19,21,23,25,-1,27,-1,-1,-1,-1,-1,29,31,33,35,37,-1,39,-1,-1,-1,-1,-1,-1,-1,-1,-1,-1,-1,-1,-1,-1],"loss_changes":[1.0070168E8,7.915472E6,1.2965516E7,1.402476E6,2.0990445E6,1.737993E6,1.66246E6,9.234E3,8.7714E4,7.4997E4,2.1339898E5,1.16945E5,3.09495E5,0E0,1.98592E5,0E0,0E0,0E0,0E0,0E0,2.7649E4,6.930956E4,5.589011E4,8.988944E4,6.9948625E4,0E0,1.97462E5,0E0,0E0,0E0,0E0,0E0,0E0,0E0,0E0,0E0,0E0,0E0,0E0,0E0,0E0],"parents":[2147483647,0,0,1,1,2,2,3,3,4,4,5,5,6,6,7,7,8,8,9,9,10,10,11,11,12,12,14,14,20,20,21,21,22,22,23,23,24,24,26,26],"right_children":[2,4,6,8,10,12,14,16,18,20,22,24,26,-1,28,-1,-1,-1,-1,-1,30,32,34,36,38,-1,40,-1,-1,-1,-1,-1,-1,-1,-1,-1,-1,-1,-1,-1,-1],"split_conditions":[2.5023496E3,1.7154608E3,3.4450593E3,1.3356523E3,2.045187E3,2.9173628E3,3.864261E3,1.2123003E3,1.580788E3,1.8710051E3,2.3246794E3,2.688195E3,3.2243743E3,2.567781E1,4.486243E3,-2.6168446E1,-2.1365828E1,-1.7404657E1,-1.4192215E1,-1.1017265E1,1.6129873E3,3.908496E3,2.1359421E3,2.7149453E3,3.435054E3,1.3571811E1,3.96086E3,3.414023E1,4.6451687E1,-2.7519271E0,-8.892001E0,-3.7105427E0,6.0413637E0,5.311202E0,1.2407624E-1,5.928484E0,3.0640748E-1,9.053386E0,-2.3761353E0,1.8897245E1,-1.81781E0],"split_indices":[0,0,0,0,0,0,0,0,0,0,0,0,0,0,0,0,0,0,0,0,3,4,3,2,3,0,3,0,0,0,0,0,0,0,0,0,0,0,0,0,0],"split_type":[0,0,0,0,0,0,0,0,0,0,0,0,0,0,0,0,0,0,0,0,0,0,0,0,0,0,0,0,0,0,0,0,0,0,0,0,0,0,0,0,0],"sum_hessian":[1.034E3,6.33E2,4.01E2,2.86E2,3.47E2,2.54E2,1.47E2,1.05E2,1.81E2,2.25E2,1.22E2,8.6E1,1.68E2,7.8E1,6.9E1,3.6E1,6.9E1,7.8E1,1.03E2,1.32E2,9.3E1,7.8E1,4.4E1,4.4E1,4.2E1,1.01E2,6.7E1,5.4E1,1.5E1,3E0,9E1,7.7E1,1E0,5E0,3.9E1,3.5E1,9E0,4.1E1,1E0,6.6E1,1E0],"tree_param":{"num_deleted":"0","num_feature":"8","num_nodes":"41","size_leaf_vector":"1"}},{"base_weights":[3.395058E0,-2.2167479E2,3.8812598E2,-2.96045E2,-5.2961456E1,2.9063776E2,6.45925E2,-4.2735306E2,-2.4798209E2,-1.3600134E2,1.9250448E0,1.8291946E2,3.6178464E2,2.8814508E1,3.9565685E1,-2.3413006E1,-3.7392496E2,-1.4220006E1,-2.0941205E2,-1.4070534E2,5.890332E0,-3.3218716E1,4.830501E1,1.3517508E2,2.1866618E2,3.140046E2,4.052577E2,-3.908081E0,-1.8890535E1,-1.0543547E1,-2.9927835E0,-1.7469565E0,-7.1499376E0,-8.799597E-1,-5.0175266E0,3.323251E0,-6.342313E-1,7.253373E0,-3.572937E0,1.1229068E1,-3.7018433E0,1.6046091E1,7.0264206E0,2.0439775E1,2.790503E0],"categories":[],"categories_nodes":[],"categories_segments":[],"categories_sizes":[],"default_left":[0,0,0,0,0,0,0,0,0,0,0,0,0,0,0,0,0,0,0,0,0,0,0,0,0,0,0,0,0,0,0,0,0,0,0,0,0,0,0,0,0,0,0,0,0],"id":19,"left_children":[1,3,5,7,9,11,13,15,17,19,21,23,25,-1,-1,-1,27,-1,29,31,-1,33,35,37,39,41,43,-1,-1,-1,-1,-1,-1,-1,-1,-1,-1,-1,-1,-1,-1,-1,-1,-1,-1],"loss_changes":[8.962147E7,8.17767E6,9.41284E6,2.752932E6,9.1637344E5,2.072026E6,5.9688E5,8.7176E4,4.09594E5,1.1208875E5,2.0046052E5,1.632995E5,2.1963E5,0E0,0E0,0E0,3.59775E4,0E0,2.3597E4,1.4166375E4,0E0,7.163359E4,5.9544414E4,1.14615375E5,1.2570475E5,5.5698E4,8.1033E4,0E0,0E0,0E0,0E0,0E0,0E0,0E0,0E0,0E0,0E0,0E0,0E0,0E0,0E0,0E0,0E0,0E0,0E0],"parents":[2147483647,0,0,1,1,2,2,3,3,4,4,5,5,6,6,7,7,8,8,9,9,10,10,11,11,12,12,16,16,18,18,19,19,21,21,22,22,23,23,24,24,25,25,26,26],"right_children":[2,4,6,8,10,12,14,16,18,20,22,24,26,-1,-1,-1,28,-1,30,32,-1,34,36,38,40,42,44,-1,-1,-1,-1,-1,-1,-1,-1,-1,-1,-1,-1,-1,-1,-1,-1,-1,-1],"split_conditions":[2.6101533E3,1.9109142E3,3.6667175E3,1.4826167E3,2.157657E3,3.0660276E3,4.216365E3,1.2663842E3,1.7205775E3,2.5191162E3,2.372202E3,2.881158E3,3.336594E3,2.8814508E1,3.9565685E1,-2.3413006E1,1.1700862E3,-1.4220006E1,2.3647517E3,1.5994767E3,5.890332E0,2.3530405E3,2.636093E3,3.1827021E3,3.5101384E3,3.8125159E3,4.000651E3,-3.908081E0,-1.8890535E1,-1.0543547E1,-2.9927835E0,-1.7469565E0,-7.1499376E0,-8.799597E-1,-5.0175266E0,3.323251E0,-6.342313E-1,7.253373E0,-3.572937E0,1.1229068E1,-3.7018433E0,1.6046091E1,7.0264206E0,2.0439775E1,2.790503E0],"split_indices":[0,0,0,0,0,0,2,0,0,2,0,0,0,0,0,0,3,0,4,3,0,5,2,2,7,4,3,0,0,0,0,0,0,0,0,0,0,0,0,0,0,0,0,0,0],"split_type":[0,0,0,0,0,0,0,0,0,0,0,0,0,0,0,0,0,0,0,0,0,0,0,0,0,0,0,0,0,0,0,0,0,0,0,0,0,0,0,0,0,0,0,0,0],"sum_hessian":[1.033E3,6.52E2,3.81E2,4.52E2,2E2,2.78E2,1.03E2,1.19E2,3.33E2,7.9E1,1.21E2,1.12E2,1.66E2,7.3E1,3E1,6.3E1,5.6E1,1.68E2,1.65E2,7.8E1,1E0,6.9E1,5.2E1,5E1,6.2E1,8.3E1,8.3E1,1E0,5.5E1,1.63E2,2E0,2E0,7.6E1,5.7E1,1.2E1,4E1,1.2E1,4.8E1,2E0,6.1E1,1E0,7.9E1,4E0,8.2E1,1E0],"tree_param":{"num_deleted":"0","num_feature":"8","num_nodes":"45","size_leaf_vector":"1"}},{"base_weights":[-3.972265E0,-2.2209705E2,3.5465887E2,-3.2219287E2,-1.1853529E2,2.6951877E2,6.280442E2,-4.2426355E2,-2.7656482E2,-1.6936983E2,-2.0800566E1,1.5845209E2,3.4032278E2,2.792575E1,3.8599373E1,-2.4895796E1,-1.9872503E1,-1.5586952E1,-1.2526761E1,-1.8431685E2,-1.2194588E2,-5.689355E1,1.3784171E1,9.644302E1,1.993132E2,1.4904836E1,1.9349516E1,-9.240806E0,-2.6233947E0,-2.559021E-1,-6.20268E0,-3.1100633E0,5.7430725E0,-5.006057E-1,1.6057528E0,5.4612784E0,-3.8931274E0,1.0207692E1,-3.6092956E0],"categories":[],"categories_nodes":[],"categories_segments":[],"categories_sizes":[],"default_left":[0,0,0,0,0,0,0,0,0,0,0,0,0,0,0,0,0,0,0,0,0,0,0,0,0,0,0,0,0,0,0,0,0,0,0,0,0,0,0],"id":20,"left_children":[1,3,5,7,9,11,13,15,17,19,21,23,25,-1,-1,-1,-1,-1,-1,27,29,31,33,35,37,-1,-1,-1,-1,-1,-1,-1,-1,-1,-1,-1,-1,-1,-1],"loss_changes":[8.252933E7,6.76197E6,9.11788E6,1.43354E6,1.6062065E6,2.35245E6,5.09608E5,1.568E3,1.35228E5,1.28507E5,1.4059008E5,2.8736225E5,2.51166E5,0E0,0E0,0E0,0E0,0E0,0E0,8.355E2,1.26620625E4,5.7283938E4,2.5621543E4,1.1990791E5,1.093615E5,0E0,0E0,0E0,0E0,0E0,0E0,0E0,0E0,0E0,0E0,0E0,0E0,0E0,0E0],"parents":[2147483647,0,0,1,1,2,2,3,3,4,4,5,5,6,6,7,7,8,8,9,9,10,10,11,11,12,12,19,19,20,20,21,21,22,22,23,23,24,24],"right_children":[2,4,6,8,10,12,14,16,18,20,22,24,26,-1,-1,-1,-1,-1,-1,28,30,32,34,36,38,-1,-1,-1,-1,-1,-1,-1,-1,-1,-1,-1,-1,-1,-1],"split_conditions":[2.5344817E3,1.7828551E3,3.7059038E3,1.3356523E3,2.1095798E3,3.0409165E3,4.216365E3,1.1700862E3,1.5934135E3,1.9553892E3,2.2960383E3,2.7644312E3,3.336594E3,2.792575E1,3.8599373E1,-2.4895796E1,-1.9872503E1,-1.5586952E1,-1.2526761E1,2.5980671E3,1.5994767E3,3.908496E3,2.372202E3,3.183599E3,3.489565E3,1.4904836E1,1.9349516E1,-9.240806E0,-2.6233947E0,-2.559021E-1,-6.20268E0,-3.1100633E0,5.7430725E0,-5.006057E-1,1.6057528E0,5.4612784E0,-3.8931274E0,1.0207692E1,-3.6092956E0],"split_indices":[0,0,0,0,0,0,0,0,0,0,0,0,0,0,0,0,0,0,0,4,3,4,0,7,7,0,0,0,0,0,0,0,0,0,0,0,0,0,0],"split_type":[0,0,0,0,0,0,0,0,0,0,0,0,0,0,0,0,0,0,0,0,0,0,0,0,0,0,0,0,0,0,0,0,0,0,0,0,0,0,0],"sum_hessian":[1.053E3,6.55E2,3.98E2,3.32E2,3.23E2,3.05E2,9.3E1,1E2,2.32E2,2.12E2,1.11E2,1.2E2,1.85E2,6.6E1,2.7E1,2.2E1,7.8E1,9.4E1,1.38E2,1.59E2,5.3E1,5.4E1,5.7E1,4.9E1,7.1E1,1.01E2,8.4E1,1.58E2,1E0,1E0,5.2E1,5.3E1,1E0,2.5E1,3.2E1,4.6E1,3E0,7E1,1E0],"tree_param":{"num_deleted":"0","num_feature":"8","num_nodes":"39","size_leaf_vector":"1"}},{"base_weights":[-4.684232E0,-2.1346678E2,3.3169946E2,-3.2382828E2,-1.295028E2,2.3218588E2,5.819644E2,-4.0168307E2,-2.7261948E2,-1.7695766E2,-2.7807915E1,1.0166739E2,2.8351105E2,2.591564E1,3.968786E1,-2.1735754E1,-1.7766615E1,-1.5139264E1,-1.2204043E1,-1.9360408E2,-1.4089774E2,-4.9104454E1,1.95658E1,1.11008095E2,-3.2190576E0,2.3676013E2,3.400982E2,-9.712001E0,-2.2010314E0,-7.4903703E0,-5.289371E0,-1.8683178E0,-5.130531E0,2.442894E0,-1.6023377E0,3.4910855E0,6.7647486E0,1.3727262E1,1.0427382E1,1.7248243E1,-2.3258667E0],"categories":[],"categories_nodes":[],"categories_segments":[],"categories_sizes":[],"default_left":[0,0,0,0,0,0,0,0,0,0,0,0,0,0,0,0,0,0,0,0,0,0,0,0,0,0,0,0,0,0,0,0,0,0,0,0,0,0,0,0,0],"id":21,"left_children":[1,3,5,7,9,11,13,15,17,19,21,23,25,-1,-1,-1,-1,-1,-1,27,29,31,33,35,-1,37,39,-1,-1,-1,-1,-1,-1,-1,-1,-1,-1,-1,-1,-1,-1],"loss_changes":[7.261948E7,5.870022E6,9.727164E6,9.86878E5,1.7517125E6,1.880358E6,1.098452E6,9.354E3,7.1586E4,1.21588E5,1.1900161E5,1.3432975E5,4.59159E5,0E0,0E0,0E0,0E0,0E0,0E0,7.335E3,9.803625E3,4.7038734E4,5.750378E4,6.8576E4,0E0,6.53355E4,1.85385E5,0E0,0E0,0E0,0E0,0E0,0E0,0E0,0E0,0E0,0E0,0E0,0E0,0E0,0E0],"parents":[2147483647,0,0,1,1,2,2,3,3,4,4,5,5,6,6,7,7,8,8,9,9,10,10,11,11,12,12,19,19,20,20,21,21,22,22,23,23,25,25,26,26],"right_children":[2,4,6,8,10,12,14,16,18,20,22,24,26,-1,-1,-1,-1,-1,-1,28,30,32,34,36,-1,38,40,-1,-1,-1,-1,-1,-1,-1,-1,-1,-1,-1,-1,-1,-1],"split_conditions":[2.5344817E3,1.6849335E3,3.5596177E3,1.3356523E3,2.081152E3,2.9173628E3,4.2983066E3,1.2504386E3,1.580788E3,1.8893224E3,2.372202E3,3.050857E3,3.244079E3,2.591564E1,3.968786E1,-2.1735754E1,-1.7766615E1,-1.5139264E1,-1.2204043E1,2.5579316E3,2.0144182E3,2.3845833E3,2.5404126E3,2.6392993E3,-3.2190576E0,3.0789866E3,3.96086E3,-9.712001E0,-2.2010314E0,-7.4903703E0,-5.289371E0,-1.8683178E0,-5.130531E0,2.442894E0,-1.6023377E0,3.4910855E0,6.7647486E0,1.3727262E1,1.0427382E1,1.7248243E1,-2.3258667E0],"split_indices":[0,0,0,0,0,0,0,0,0,0,0,5,0,0,0,0,0,0,0,3,0,7,5,0,0,7,3,0,0,0,0,0,0,0,0,0,0,0,0,0,0],"split_type":[0,0,0,0,0,0,0,0,0,0,0,0,0,0,0,0,0,0,0,0,0,0,0,0,0,0,0,0,0,0,0,0,0,0,0,0,0,0,0,0,0],"sum_hessian":[1.032E3,6.37E2,3.95E2,2.74E2,3.63E2,2.84E2,1.11E2,1.06E2,1.68E2,2.47E2,1.16E2,8.1E1,2.03E2,8.8E1,2.3E1,5.7E1,4.9E1,7.7E1,9.1E1,1.66E2,8.1E1,8E1,3.6E1,7.7E1,4E0,1.14E2,8.9E1,1.65E2,1E0,6.2E1,1.9E1,6.7E1,1.3E1,2.3E1,1.3E1,3E1,4.7E1,4.5E1,6.9E1,8.8E1,1E0],"tree_param":{"num_deleted":"0","num_feature":"8","num_nodes":"41","size_leaf_vector":"1"}},{"base_weights":[-2.9767406E0,-1.9017535E2,3.3962067E2,-2.8497955E2,-8.634037E1,2.1795457E2,4.9128897E2,-3.6266498E2,-2.3405183E2,-1.4340942E2,2.720914E0,1.4649377E2,2.712054E2,4.1769833E2,6.1918427E2,-2.0326303E1,-3.2384302E2,-2.647239E2,-2.0884175E2,-1.5994162E2,-9.819862E1,-3.231886E1,3.828196E1,2.2146985E2,1.1814615E2,2.744082E2,-2.2677186E0,4.507408E2,3.5593207E2,2.78892E1,3.896855E1,-3.5510957E0,-1.631335E1,-3.342096E0,-1.3308995E1,-1.05125065E1,-1.031125E0,-8.023929E0,-2.1460083E0,-5.2187133E0,5.727759E0,-1.8684505E0,4.0570273E0,2.4052598E0,-1.2455512E0,1.6373352E0,1.1427984E1,3.7690601E0,7.383672E0,1.595753E1,1.217229E1,2.3619024E1,1.43324375E1,6.260738E0,1.8227654E1],"categories":[],"categories_nodes":[],"categories_segments":[],"categories_sizes":[],"default_left":[0,0,0,0,0,0,0,0,0,0,0,0,0,0,0,0,0,0,0,0,0,0,0,0,0,0,0,0,0,0,0,0,0,0,0,0,0,0,0,0,0,0,0,0,0,0,0,0,0,0,0,0,0,0,0],"id":22,"left_children":[1,3,5,7,9,11,13,15,17,19,21,23,25,27,29,-1,31,33,35,37,39,41,43,45,47,49,-1,51,53,-1,-1,-1,-1,-1,-1,-1,-1,-1,-1,-1,-1,-1,-1,-1,-1,-1,-1,-1,-1,-1,-1,-1,-1,-1,-1],"loss_changes":[6.5160356E7,6.442898E6,6.517508E6,1.272144E6,1.6014228E6,7.25146E5,1.23786E6,9.652E4,1.07096E5,1.2780125E5,1.5574755E5,1.6086875E5,1.28026E5,5.1824E4,1.16068E5,0E0,2.34035E4,8.4265E3,2.7474E4,1.8465E3,8.290669E4,3.9130344E4,3.968546E4,2.3289875E4,7.220856E4,7.8848E4,0E0,9.185E4,3.59025E4,0E0,0E0,0E0,0E0,0E0,0E0,0E0,0E0,0E0,0E0,0E0,0E0,0E0,0E0,0E0,0E0,0E0,0E0,0E0,0E0,0E0,0E0,0E0,0E0,0E0,0E0],"parents":[2147483647,0,0,1,1,2,2,3,3,4,4,5,5,6,6,7,7,8,8,9,9,10,10,11,11,12,12,13,13,14,14,16,16,17,17,18,18,19,19,20,20,21,21,22,22,23,23,24,24,25,25,27,27,28,28],"right_children":[2,4,6,8,10,12,14,16,18,20,22,24,26,28,30,-1,32,34,36,38,40,42,44,46,48,50,-1,52,54,-1,-1,-1,-1,-1,-1,-1,-1,-1,-1,-1,-1,-1,-1,-1,-1,-1,-1,-1,-1,-1,-1,-1,-1,-1,-1],"split_conditions":[2.6218018E3,1.8059537E3,3.4220498E3,1.5143749E3,2.157657E3,3.0137327E3,3.9302573E3,1.2504386E3,1.6352217E3,1.9613157E3,2.358732E3,2.727055E3,4.000651E3,3.4441426E3,4.486243E3,-2.0326303E1,1.0677307E3,1.416049E3,2.0604084E3,2.5579316E3,2.7644312E3,3.162668E3,3.1790935E3,2.4952192E3,2.8531433E3,3.103542E3,-2.2677186E0,3.8162778E3,3.489565E3,2.78892E1,3.896855E1,-3.5510957E0,-1.631335E1,-3.342096E0,-1.3308995E1,-1.05125065E1,-1.031125E0,-8.023929E0,-2.1460083E0,-5.2187133E0,5.727759E0,-1.8684505E0,4.0570273E0,2.4052598E0,-1.2455512E0,1.6373352E0,1.1427984E1,3.7690601E0,7.383672E0,1.595753E1,1.217229E1,2.3619024E1,1.43324375E1,6.260738E0,1.8227654E1],"split_indices":[0,0,0,0,0,0,0,1,0,0,0,7,3,7,0,0,4,1,4,3,3,7,7,5,0,3,0,5,7,0,0,0,0,0,0,0,0,0,0,0,0,0,0,0,0,0,0,0,0,0,0,0,0,0,0],"split_type":[0,0,0,0,0,0,0,0,0,0,0,0,0,0,0,0,0,0,0,0,0,0,0,0,0,0,0,0,0,0,0,0,0,0,0,0,0,0,0,0,0,0,0,0,0,0,0,0,0,0,0,0,0,0,0],"sum_hessian":[1.014E3,6.56E2,3.58E2,3.42E2,3.14E2,2E2,1.58E2,1.33E2,2.09E2,1.91E2,1.23E2,8.7E1,1.13E2,1.03E2,5.5E1,5.8E1,7.5E1,9E1,1.19E2,1.38E2,5.3E1,6.2E1,6.1E1,2.2E1,6.5E1,1.12E2,1E0,6.3E1,4E1,4.3E1,1.2E1,1E0,7.4E1,1E0,8.9E1,1.18E2,1E0,1.37E2,1E0,5.2E1,1E0,6E1,2E0,5.3E1,8E0,1E0,2.1E1,2.8E1,3.7E1,4.2E1,7E1,5.4E1,9E0,2E0,3.8E1],"tree_param":{"num_deleted":"0","num_feature":"8","num_nodes":"55","size_leaf_vector":"1"}},{"base_weights":[1.2833668E0,-1.79441E2,3.279368E2,-2.3028229E2,-1.4038549E1,2.3443173E2,5.313246E2,-3.2051233E2,-1.8154947E2,-5.7758503E1,2.4252556E1,1.6074161E2,3.0038092E2,2.3706886E1,3.6140343E1,-1.8818926E1,-2.8153952E2,-2.1489757E2,-1.5347215E2,-9.277611E1,-3.4922993E1,2.9963665E0,5.3691807E1,9.9631165E1,1.8558592E2,3.049197E2,-9.652507E-1,-6.8914523E0,-1.4214034E1,-3.0459077E0,-1.0775694E1,-8.044538E0,-6.49637E0,-6.469391E-1,-5.0745234E0,1.13322236E-1,-2.460457E0,3.1453054E0,-1.7203811E-1,3.4841256E0,-1.1255022E0,6.532716E0,2.1676018E0,9.520633E0,-6.51648E-1,1.20774145E1,1.6297441E1,-2.211023E0,2.1386292E0],"categories":[],"categories_nodes":[],"categories_segments":[],"categories_sizes":[],"default_left":[0,0,0,0,0,0,0,0,0,0,0,0,0,0,0,0,0,0,0,0,0,0,0,0,0,0,0,0,0,0,0,0,0,0,0,0,0,0,0,0,0,0,0,0,0,0,0,0,0],"id":23,"left_children":[1,3,5,7,9,11,13,15,17,19,21,23,25,-1,-1,-1,27,29,31,33,35,37,39,41,43,45,47,-1,-1,-1,-1,-1,-1,-1,-1,-1,-1,-1,-1,-1,-1,-1,-1,-1,-1,-1,-1,-1,-1],"loss_changes":[6.1985756E7,5.681434E6,6.988096E6,2.215148E6,2.6925447E5,1.205545E6,9.38474E5,2.8594E5,2.83497E5,5.673333E4,5.365501E4,1.697725E5,1.8494E5,0E0,0E0,0E0,4.15E3,1.2955E3,1.17585E4,1.8863031E4,2.5082344E4,1.9884426E4,4.543533E4,6.0682188E4,8.58865E4,9.851E4,7.567091E3,0E0,0E0,0E0,0E0,0E0,0E0,0E0,0E0,0E0,0E0,0E0,0E0,0E0,0E0,0E0,0E0,0E0,0E0,0E0,0E0,0E0,0E0],"parents":[2147483647,0,0,1,1,2,2,3,3,4,4,5,5,6,6,7,7,8,8,9,9,10,10,11,11,12,12,16,16,17,17,18,18,19,19,20,20,21,21,22,22,23,23,24,24,25,25,26,26],"right_children":[2,4,6,8,10,12,14,16,18,20,22,24,26,-1,-1,-1,28,30,32,34,36,38,40,42,44,46,48,-1,-1,-1,-1,-1,-1,-1,-1,-1,-1,-1,-1,-1,-1,-1,-1,-1,-1,-1,-1,-1,-1],"split_conditions":[2.6218018E3,2.045187E3,3.5908838E3,1.580788E3,2.2960383E3,3.1301648E3,4.2983066E3,1.2760935E3,1.7828551E3,2.0627703E3,2.4722412E3,2.8531433E3,4.0375476E3,2.3706886E1,3.6140343E1,-1.8818926E1,1.1001698E3,1.1276425E3,1.9109142E3,1.832396E3,2.2298992E3,1.9772769E3,2.688195E3,2.7811118E3,3.5101384E3,3.244079E3,3.3916943E3,-6.8914523E0,-1.4214034E1,-3.0459077E0,-1.0775694E1,-8.044538E0,-6.49637E0,-6.469391E-1,-5.0745234E0,1.13322236E-1,-2.460457E0,3.1453054E0,-1.7203811E-1,3.4841256E0,-1.1255022E0,6.532716E0,2.1676018E0,9.520633E0,-6.51648E-1,1.20774145E1,1.6297441E1,-2.211023E0,2.1386292E0],"split_indices":[0,0,0,0,0,0,0,0,0,5,0,0,3,0,0,0,4,4,0,2,5,4,2,2,7,0,0,0,0,0,0,0,0,0,0,0,0,0,0,0,0,0,0,0,0,0,0,0,0],"split_type":[0,0,0,0,0,0,0,0,0,0,0,0,0,0,0,0,0,0,0,0,0,0,0,0,0,0,0,0,0,0,0,0,0,0,0,0,0,0,0,0,0,0,0,0,0,0,0,0,0],"sum_hessian":[1.048E3,6.75E2,3.73E2,5.16E2,1.59E2,2.57E2,1.16E2,1.79E2,3.37E2,7.4E1,8.5E1,1.23E2,1.34E2,9.2E1,2.4E1,7E1,1.09E2,1.51E2,1.86E2,2.8E1,4.6E1,5E1,3.5E1,3.7E1,8.6E1,1.32E2,2E0,3E0,1.06E2,1E0,1.5E2,1.37E2,4.9E1,3E0,2.5E1,1.3E1,3.3E1,4E0,4.6E1,2.9E1,6E0,2.3E1,1.4E1,8.4E1,2E0,3.6E1,9.6E1,1E0,1E0],"tree_param":{"num_deleted":"0","num_feature":"8","num_nodes":"49","size_leaf_vector":"1"}},{"base_weights":[9.815415E0,-1.6448328E2,3.133176E2,-2.4493561E2,-5.710648E1,2.3804796E2,5.237969E2,-3.401646E2,-2.0885484E2,-1.187133E2,7.1084876E0,1.8130066E2,3.0073013E2,2.3171333E1,3.2360043E1,-1.8895239E1,-1.4907123E1,-2.4129463E2,-1.8382791E2,-1.2110605E2,5.6460757E0,-3.5216866E1,4.993694E1,1.3103297E2,2.0902371E2,3.0368402E2,-2.1557496E0,-2.4621034E0,-1.2126288E1,-9.284499E0,-1.2241272E0,-6.7865334E0,-4.9490943E0,-9.326663E-1,-3.5630252E0,2.6651707E0,-4.5587463E0,-2.8718263E-1,6.9441714E0,1.1684791E1,8.2932825E0,1.7366253E1,1.3881024E1],"categories":[],"categories_nodes":[],"categories_segments":[],"categories_sizes":[],"default_left":[0,0,0,0,0,0,0,0,0,0,0,0,0,0,0,0,0,0,0,0,0,0,0,0,0,0,0,0,0,0,0,0,0,0,0,0,0,0,0,0,0,0,0],"id":24,"left_children":[1,3,5,7,9,11,13,15,17,19,21,23,25,-1,-1,-1,-1,27,29,31,-1,33,35,37,39,41,-1,-1,-1,-1,-1,-1,-1,-1,-1,-1,-1,-1,-1,-1,-1,-1,-1],"loss_changes":[5.4961772E7,5.687566E6,5.879696E6,1.2243E6,1.1243705E6,9.45008E5,4.37612E5,4.9095E4,1.7972E5,9.4040875E4,2.5554072E5,1.816475E5,1.47163E5,0E0,0E0,0E0,0E0,1.5721E4,4.29275E4,3.31575E4,0E0,4.1058484E4,3.8113406E4,6.0928062E4,6.2394E4,5.258E4,0E0,0E0,0E0,0E0,0E0,0E0,0E0,0E0,0E0,0E0,0E0,0E0,0E0,0E0,0E0,0E0,0E0],"parents":[2147483647,0,0,1,1,2,2,3,3,4,4,5,5,6,6,7,7,8,8,9,9,10,10,11,11,12,12,17,17,18,18,19,19,21,21,22,22,23,23,24,24,25,25],"right_children":[2,4,6,8,10,12,14,16,18,20,22,24,26,-1,-1,-1,-1,28,30,32,-1,34,36,38,40,42,-1,-1,-1,-1,-1,-1,-1,-1,-1,-1,-1,-1,-1,-1,-1,-1,-1],"split_conditions":[2.688195E3,1.8517427E3,3.7059038E3,1.3356523E3,2.157657E3,3.2243743E3,4.216365E3,1.2225062E3,1.6352217E3,2.945131E3,2.372202E3,2.945131E3,4.0790574E3,2.3171333E1,3.2360043E1,-1.8895239E1,-1.4907123E1,1.2014457E3,2.2019114E3,1.9553892E3,5.6460757E0,2.3475662E3,3.96086E3,2.5876912E3,3.1577515E3,3.2717266E3,-2.1557496E0,-2.4621034E0,-1.2126288E1,-9.284499E0,-1.2241272E0,-6.7865334E0,-4.9490943E0,-9.326663E-1,-3.5630252E0,2.6651707E0,-4.5587463E0,-2.8718263E-1,6.9441714E0,1.1684791E1,8.2932825E0,1.7366253E1,1.3881024E1],"split_indices":[0,0,0,0,0,0,0,0,0,3,0,0,3,0,0,0,0,5,4,0,0,3,4,1,3,6,0,0,0,0,0,0,0,0,0,0,0,0,0,0,0,0,0],"split_type":[0,0,0,0,0,0,0,0,0,0,0,0,0,0,0,0,0,0,0,0,0,0,0,0,0,0,0,0,0,0,0,0,0,0,0,0,0,0,0,0,0,0,0],"sum_hessian":[1.037E3,6.59E2,3.78E2,3.76E2,2.83E2,2.8E2,9.8E1,1.01E2,2.75E2,1.44E2,1.39E2,1.49E2,1.31E2,6.9E1,2.9E1,4.9E1,5.2E1,1.16E2,1.59E2,1.43E2,1E0,7E1,6.9E1,5.5E1,9.4E1,1.3E2,1E0,1E0,1.15E2,1.57E2,2E0,8.3E1,6E1,4.9E1,2.1E1,6.8E1,1E0,3E0,5.2E1,5.7E1,3.7E1,4.4E1,8.6E1],"tree_param":{"num_deleted":"0","num_feature":"8","num_nodes":"43","size_leaf_vector":"1"}},{"base_weights":[2.2674136E0,-1.7242334E2,2.786767E2,-2.6079935E2,-1.0198005E2,2.0771883E2,5.0029163E2,-1.6458326E1,-2.237739E2,-1.3911107E2,-1.6326712E1,1.11114395E2,2.657064E2,2.2326216E1,3.1600586E1,-1.2329524E1,-2.03797E2,-8.0047865E0,-1.1632764E2,-5.6014618E1,1.2011294E1,7.2380104E1,1.3757237E2,2.3377777E2,3.2096082E2,-3.9993856E0,-1.0270442E1,-6.759216E-1,-5.8951116E0,-2.1098387E0,-7.0550385E0,1.0920649E0,-5.5158496E0,4.2777286E0,-3.1650465E0,1.4406084E1,6.193758E0,1.181603E1,-2.1018555E0,4.674457E0,1.614803E1],"categories":[],"categories_nodes":[],"categories_segments":[],"categories_sizes":[],"default_left":[0,0,0,0,0,0,0,0,0,0,0,0,0,0,0,0,0,0,0,0,0,0,0,0,0,0,0,0,0,0,0,0,0,0,0,0,0,0,0,0,0],"id":25,"left_children":[1,3,5,7,9,11,13,-1,15,17,19,21,23,-1,-1,-1,25,-1,27,29,31,33,35,37,39,-1,-1,-1,-1,-1,-1,-1,-1,-1,-1,-1,-1,-1,-1,-1,-1],"loss_changes":[5.07485E7,3.982624E6,6.296288E6,6.47766E5,1.1426718E6,1.707051E6,4.11852E5,0E0,3.5437E4,1.0138E5,1.2438717E5,1.10972375E5,2.65457E5,0E0,0E0,0E0,4.723E3,0E0,1.84795E4,4.812853E4,8.057115E4,9.4791875E4,1.0659425E5,9.8304E4,7.385E2,0E0,0E0,0E0,0E0,0E0,0E0,0E0,0E0,0E0,0E0,0E0,0E0,0E0,0E0,0E0,0E0],"parents":[2147483647,0,0,1,1,2,2,3,3,4,4,5,5,6,6,8,8,9,9,10,10,11,11,12,12,16,16,18,18,19,19,20,20,21,21,22,22,23,23,24,24],"right_children":[2,4,6,8,10,12,14,-1,16,18,20,22,24,-1,-1,-1,26,-1,28,30,32,34,36,38,40,-1,-1,-1,-1,-1,-1,-1,-1,-1,-1,-1,-1,-1,-1,-1,-1],"split_conditions":[2.5344817E3,1.6849335E3,3.7059038E3,1.3356523E3,2.1200264E3,3.0137327E3,4.274743E3,-1.6458326E1,1.580788E3,1.8622014E3,2.2960383E3,2.7644312E3,3.4220498E3,2.2326216E1,3.1600586E1,-1.2329524E1,1.5077828E3,-8.0047865E0,1.6129873E3,2.5075706E3,2.6218018E3,3.167687E3,2.3647854E3,4.000651E3,2.9703555E3,-3.9993856E0,-1.0270442E1,-6.759216E-1,-5.8951116E0,-2.1098387E0,-7.0550385E0,1.0920649E0,-5.5158496E0,4.2777286E0,-3.1650465E0,1.4406084E1,6.193758E0,1.181603E1,-2.1018555E0,4.674457E0,1.614803E1],"split_indices":[0,0,0,0,0,0,1,0,0,0,0,0,0,0,0,0,1,0,3,3,1,7,7,3,1,0,0,0,0,0,0,0,0,0,0,0,0,0,0,0,0],"split_type":[0,0,0,0,0,0,0,0,0,0,0,0,0,0,0,0,0,0,0,0,0,0,0,0,0,0,0,0,0,0,0,0,0,0,0,0,0,0,0,0,0],"sum_hessian":[1.049E3,6.43E2,4.06E2,2.84E2,3.59E2,3.09E2,9.7E1,9.7E1,1.87E2,2.5E2,1.09E2,1.17E2,1.92E2,7.2E1,2.5E1,8.2E1,1.05E2,1.27E2,1.23E2,4.5E1,6.4E1,4.9E1,6.8E1,1.25E2,6.7E1,2E0,1.03E2,2E0,1.21E2,4E1,5E0,6E1,4E0,4.5E1,4E0,4E0,6.4E1,1.24E2,1E0,1E0,6.6E1],"tree_param":{"num_deleted":"0","num_feature":"8","num_nodes":"41","size_leaf_vector":"1"}},{"base_weights":[2.1005259E0,-1.5304614E2,2.8144357E2,-2.3304846E2,-6.6524635E1,2.1641107E2,4.700184E2,-2.9501855E2,-1.8916245E2,-1.20012566E2,-1.0599577E0,1.6256927E2,2.8314847E2,2.1856382E1,3.4964966E1,-1.6803793E1,-2.6614368E2,-2.0969977E2,-1.667706E2,-1.2825287E2,-7.590936E1,-3.0139202E1,4.0153305E1,1.305998E2,1.9906694E2,2.8619113E2,-2.0493104E0,-4.6708393E0,-1.3455441E1,-2.6376617E0,-1.053657E1,-8.409734E0,-5.7351077E-1,-3.7474778E0,-6.5199E0,-7.672681E-1,-4.231835E0,-1.6594788E0,5.6523013E0,2.5690694E0,-2.0452881E-2,6.9052744E0,1.3617798E0,1.0017276E1,2.7711122E0,1.5561335E1,1.2245842E1],"categories":[],"categories_nodes":[],"categories_segments":[],"categories_sizes":[],"default_left":[0,0,0,0,0,0,0,0,0,0,0,0,0,0,0,0,0,0,0,0,0,0,0,0,0,0,0,0,0,0,0,0,0,0,0,0,0,0,0,0,0,0,0,0,0,0,0],"id":26,"left_children":[1,3,5,7,9,11,13,15,17,19,21,23,25,-1,-1,-1,27,29,31,33,35,37,39,41,43,45,-1,-1,-1,-1,-1,-1,-1,-1,-1,-1,-1,-1,-1,-1,-1,-1,-1,-1,-1,-1,-1],"loss_changes":[4.442235E7,4.546043E6,4.386724E6,8.74302E5,1.1133722E6,9.38522E5,3.9565E5,7.6529E4,5.8382E4,5.38635E4,1.7378706E5,1.5369075E5,1.31064E5,0E0,0E0,0E0,1.94185E4,5.398E3,2.062875E4,6.92075E3,1.4558078E4,4.0877242E4,2.7347273E4,6.2183375E4,1.75275E3,4.7775E4,0E0,0E0,0E0,0E0,0E0,0E0,0E0,0E0,0E0,0E0,0E0,0E0,0E0,0E0,0E0,0E0,0E0,0E0,0E0,0E0,0E0],"parents":[2147483647,0,0,1,1,2,2,3,3,4,4,5,5,6,6,7,7,8,8,9,9,10,10,11,11,12,12,16,16,17,17,18,18,19,19,20,20,21,21,22,22,23,23,24,24,25,25],"right_children":[2,4,6,8,10,12,14,16,18,20,22,24,26,-1,-1,-1,28,30,32,34,36,38,40,42,44,46,-1,-1,-1,-1,-1,-1,-1,-1,-1,-1,-1,-1,-1,-1,-1,-1,-1,-1,-1,-1,-1],"split_conditions":[2.6392993E3,1.8102971E3,3.7059038E3,1.5419143E3,2.1095798E3,3.2243743E3,4.584799E3,1.2504386E3,1.6524574E3,2.0144182E3,2.372202E3,3.0137327E3,4.0790574E3,2.1856382E1,3.4964966E1,-1.6803793E1,1.1700862E3,1.1276425E3,2.0604084E3,1.7166688E3,1.9367246E3,2.7149453E3,2.7020537E3,3.513393E3,3.5596177E3,3.4450593E3,-2.0493104E0,-4.6708393E0,-1.3455441E1,-2.6376617E0,-1.053657E1,-8.409734E0,-5.7351077E-1,-3.7474778E0,-6.5199E0,-7.672681E-1,-4.231835E0,-1.6594788E0,5.6523013E0,2.5690694E0,-2.0452881E-2,6.9052744E0,1.3617798E0,1.0017276E1,2.7711122E0,1.5561335E1,1.2245842E1],"split_indices":[0,0,0,0,0,0,0,0,0,0,0,0,3,0,0,0,3,4,4,2,5,2,5,4,2,2,0,0,0,0,0,0,0,0,0,0,0,0,0,0,0,0,0,0,0,0,0],"split_type":[0,0,0,0,0,0,0,0,0,0,0,0,0,0,0,0,0,0,0,0,0,0,0,0,0,0,0,0,0,0,0,0,0,0,0,0,0,0,0,0,0,0,0,0,0,0,0],"sum_hessian":[1.023E3,6.58E2,3.65E2,3.41E2,3.17E2,2.73E2,9.2E1,1.39E2,2.02E2,1.74E2,1.43E2,1.53E2,1.2E2,8.3E1,9E0,5.3E1,8.6E1,1.01E2,1.01E2,1.45E2,2.9E1,8.4E1,5.9E1,8.4E1,6.9E1,1.19E2,1E0,2E0,8.4E1,1E0,1E2,1E2,1E0,7E0,1.38E2,4E0,2.5E1,8.3E1,1E0,4.6E1,1.3E1,7.8E1,6E0,6.8E1,1E0,7E1,4.9E1],"tree_param":{"num_deleted":"0","num_feature":"8","num_nodes":"47","size_leaf_vector":"1"}},{"base_weights":[2.3972147E0,-1.4841885E2,2.637528E2,-2.2162729E2,-6.508191E1,2.0146008E2,4.4982178E2,-2.9982187E2,-1.8717282E2,-1.0815993E2,-1.8180172E0,1.26118416E2,2.4530229E2,4.1586295E2,3.35669E1,-1.8010221E1,-1.388781E1,-1.0603561E1,-1.6197691E2,-1.22807434E2,-6.7266335E1,-2.0329967E1,4.047382E1,1.2897293E2,-4.4828615E0,2.1762209E2,2.8809998E2,3.4160773E2,2.2317305E1,-8.154246E0,-5.591736E-1,-2.8827627E0,-6.2695413E0,-3.6510227E0,5.5109925E0,-2.1290958E0,-1.4575723E-1,2.956622E0,-1.960994E0,4.6370487E0,7.843895E0,1.1012762E1,-1.9980774E0,1.6349703E1,1.1979422E1,1.748469E1,2.8799622E0],"categories":[],"categories_nodes":[],"categories_segments":[],"categories_sizes":[],"default_left":[0,0,0,0,0,0,0,0,0,0,0,0,0,0,0,0,0,0,0,0,0,0,0,0,0,0,0,0,0,0,0,0,0,0,0,0,0,0,0,0,0,0,0,0,0,0,0],"id":27,"left_children":[1,3,5,7,9,11,13,15,17,19,21,23,25,27,-1,-1,-1,-1,29,31,33,35,37,39,-1,41,43,45,-1,-1,-1,-1,-1,-1,-1,-1,-1,-1,-1,-1,-1,-1,-1,-1,-1,-1,-1],"loss_changes":[4.1150684E7,4.024415E6,4.337042E6,8.92222E5,8.473665E5,9.20368E5,4.35446E5,4.1184E4,1.20601E5,1.02552E5,1.00251695E5,7.8084375E4,1.51724E5,3.9924E4,0E0,0E0,0E0,0E0,1.93955E4,1.549275E4,6.0133438E4,3.4364594E4,6.0311164E4,9.36335E4,0E0,8.6123E4,4.99595E4,4.64565E4,0E0,0E0,0E0,0E0,0E0,0E0,0E0,0E0,0E0,0E0,0E0,0E0,0E0,0E0,0E0,0E0,0E0,0E0,0E0],"parents":[2147483647,0,0,1,1,2,2,3,3,4,4,5,5,6,6,7,7,8,8,9,9,10,10,11,11,12,12,13,13,18,18,19,19,20,20,21,21,22,22,23,23,25,25,26,26,27,27],"right_children":[2,4,6,8,10,12,14,16,18,20,22,24,26,28,-1,-1,-1,-1,30,32,34,36,38,40,-1,42,44,46,-1,-1,-1,-1,-1,-1,-1,-1,-1,-1,-1,-1,-1,-1,-1,-1,-1,-1,-1],"split_conditions":[2.6218018E3,1.8102971E3,3.7372178E3,1.3356523E3,2.178499E3,3.0660276E3,4.584799E3,1.1700862E3,1.6352217E3,1.9950609E3,2.4722412E3,3.5101384E3,3.4291697E3,3.864261E3,3.35669E1,-1.8010221E1,-1.388781E1,-1.0603561E1,1.9996306E3,1.6228967E3,2.5191162E3,2.2960383E3,2.688195E3,2.8909417E3,-4.4828615E0,4.000651E3,3.5057349E3,3.9302573E3,2.2317305E1,-8.154246E0,-5.591736E-1,-2.8827627E0,-6.2695413E0,-3.6510227E0,5.5109925E0,-2.1290958E0,-1.4575723E-1,2.956622E0,-1.960994E0,4.6370487E0,7.843895E0,1.1012762E1,-1.9980774E0,1.6349703E1,1.1979422E1,1.748469E1,2.8799622E0],"split_indices":[0,0,0,0,0,0,0,0,0,0,0,7,0,0,0,0,0,0,6,3,2,0,2,0,0,3,2,2,0,0,0,0,0,0,0,0,0,0,0,0,0,0,0,0,0,0,0],"split_type":[0,0,0,0,0,0,0,0,0,0,0,0,0,0,0,0,0,0,0,0,0,0,0,0,0,0,0,0,0,0,0,0,0,0,0,0,0,0,0,0,0,0,0,0,0,0,0],"sum_hessian":[1.042E3,6.61E2,3.81E2,3.51E2,3.1E2,2.87E2,9.4E1,1.05E2,2.46E2,1.84E2,1.26E2,1.07E2,1.8E2,8.4E1,1E1,2.4E1,8.1E1,1.2E2,1.26E2,1.34E2,5E1,8.8E1,3.8E1,1.06E2,1E0,1.13E2,6.7E1,2.8E1,5.6E1,1.25E2,1E0,6E0,1.28E2,4.9E1,1E0,3.8E1,5E1,3.1E1,7E0,4.8E1,5.8E1,1.12E2,1E0,3.4E1,3.3E1,2.7E1,1E0],"tree_param":{"num_deleted":"0","num_feature":"8","num_nodes":"47","size_leaf_vector":"1"}},{"base_weights":[1.0352188E0,-1.4159177E2,2.602825E2,-2.0817497E2,-6.1441895E1,2.0155467E2,4.23217E2,-2.810425E2,-1.7694609E2,-1.0233968E2,6.183793E0,1.5063597E2,2.6500525E2,1.9200304E1,3.2050438E1,-1.7317232E1,-2.6467755E2,-9.853077E0,-7.9304743E0,-1.04045425E2,5.373218E0,-1.2296631E1,4.4975395E1,8.86687E1,1.7292679E2,2.6793628E2,-1.9481262E0,-3.7537782E0,-1.3298949E1,-5.661756E0,-3.542548E0,2.6461196E0,-1.0253134E0,2.5632923E0,-2.768335E-1,6.3409367E0,2.7386034E0,9.739974E0,7.608175E0,1.5180289E1,1.2234935E1],"categories":[],"categories_nodes":[],"categories_segments":[],"categories_sizes":[],"default_left":[0,0,0,0,0,0,0,0,0,0,0,0,0,0,0,0,0,0,0,0,0,0,0,0,0,0,0,0,0,0,0,0,0,0,0,0,0,0,0,0,0],"id":28,"left_children":[1,3,5,7,9,11,13,15,17,19,21,23,25,-1,-1,-1,27,-1,-1,29,-1,31,33,35,37,39,-1,-1,-1,-1,-1,-1,-1,-1,-1,-1,-1,-1,-1,-1,-1],"loss_changes":[3.7715052E7,3.498715E6,3.3786E6,7.67201E5,8.30355E5,8.25941E5,5.6513E5,2.1609E4,6.24315E4,7.810325E4,8.227796E4,1.9324325E5,1.155695E5,0E0,0E0,0E0,1.9925E3,0E0,0E0,4.8716E4,0E0,4.2848348E4,1.2040359E4,4.73665E4,2.0315E4,2.2686E4,0E0,0E0,0E0,0E0,0E0,0E0,0E0,0E0,0E0,0E0,0E0,0E0,0E0,0E0,0E0],"parents":[2147483647,0,0,1,1,2,2,3,3,4,4,5,5,6,6,7,7,8,8,9,9,10,10,11,11,12,12,16,16,19,19,21,21,22,22,23,23,24,24,25,25],"right_children":[2,4,6,8,10,12,14,16,18,20,22,24,26,-1,-1,-1,28,-1,-1,30,-1,32,34,36,38,40,-1,-1,-1,-1,-1,-1,-1,-1,-1,-1,-1,-1,-1,-1,-1],"split_conditions":[2.6218018E3,1.827462E3,3.7372178E3,1.3356523E3,2.178499E3,3.244079E3,4.584799E3,1.1700862E3,1.6352217E3,2.5191162E3,2.4722412E3,2.8909417E3,4.134453E3,1.9200304E1,3.2050438E1,-1.7317232E1,1.1542076E3,-9.853077E0,-7.9304743E0,2.0274174E3,5.373218E0,1.9964413E3,2.6101533E3,2.608267E3,3.0789866E3,3.095826E3,-1.9481262E0,-3.7537782E0,-1.3298949E1,-5.661756E0,-3.542548E0,2.6461196E0,-1.0253134E0,2.5632923E0,-2.768335E-1,6.3409367E0,2.7386034E0,9.739974E0,7.608175E0,1.5180289E1,1.2234935E1],"split_indices":[0,0,0,0,0,0,0,0,0,2,0,0,3,0,0,0,7,0,0,0,0,4,0,2,7,4,0,0,0,0,0,0,0,0,0,0,0,0,0,0,0],"split_type":[0,0,0,0,0,0,0,0,0,0,0,0,0,0,0,0,0,0,0,0,0,0,0,0,0,0,0,0,0,0,0,0,0,0,0,0,0,0,0,0,0],"sum_hessian":[1.018E3,6.57E2,3.61E2,3.58E2,2.99E2,2.67E2,9.4E1,1.05E2,2.53E2,1.86E2,1.13E2,1.5E2,1.17E2,8.2E1,1.2E1,1.7E1,8.8E1,1.16E2,1.37E2,1.85E2,1E0,7.7E1,3.6E1,4.1E1,1.09E2,1.16E2,1E0,1E0,8.7E1,1.43E2,4.2E1,8E0,6.9E1,3.2E1,4E0,1.8E1,2.3E1,4.9E1,6E1,4.1E1,7.5E1],"tree_param":{"num_deleted":"0","num_feature":"8","num_nodes":"41","size_leaf_vector":"1"}},{"base_weights":[3.2957742E0,-1.355698E2,2.2701532E2,-1.855986E2,-5.5094624E1,1.3442882E2,3.0921268E2,-2.6276965E2,-1.6079968E2,-9.534165E1,-1.2040736E1,9.026189E1,1.5927971E2,2.584776E2,4.2533493E2,-1.4008794E1,-1.1190618E1,-1.7870496E2,-1.3245255E2,-3.4065613E1,-9.86322E1,-1.9895903E1,4.0261337E1,1.5072783E2,3.2259087E1,2.3342628E2,1.3498206E2,3.2148083E2,2.287312E2,3.5756665E2,2.5270767E1,-7.6757317E0,-9.754003E0,-3.374416E0,-6.952296E0,-3.7406983E0,2.6730958E-1,-7.434837E0,-4.7346435E0,-5.6703305E-1,-4.2626987E0,3.3857224E0,-2.9513307E0,1.1904787E1,6.1751356E0,1.984375E0,-5.8790956E0,9.520065E0,1.676505E1,6.891857E0,-3.1207886E0,1.6423702E1,3.4448242E-1,1.1697677E1,1.9842255E0,1.8279919E1,7.2337403E0],"categories":[],"categories_nodes":[],"categories_segments":[],"categories_sizes":[],"default_left":[0,0,0,0,0,0,0,0,0,0,0,0,0,0,0,0,0,0,0,0,0,0,0,0,0,0,0,0,0,0,0,0,0,0,0,0,0,0,0,0,0,0,0,0,0,0,0,0,0,0,0,0,0,0,0,0,0],"id":29,"left_children":[1,3,5,7,9,11,13,15,17,19,21,23,25,27,29,-1,-1,31,33,35,37,39,41,43,45,47,49,51,53,55,-1,-1,-1,-1,-1,-1,-1,-1,-1,-1,-1,-1,-1,-1,-1,-1,-1,-1,-1,-1,-1,-1,-1,-1,-1,-1,-1],"loss_changes":[3.2122928E7,2.558412E6,2.972138E6,7.09854E5,4.2511862E5,1.9196975E5,1.121378E6,1.0345E3,1.285985E5,2.2247375E4,5.0102004E4,2.4064119E5,1.828805E5,2.03837E5,1.55748E5,0E0,0E0,4.47135E4,4.2016E4,1.3247698E4,9.586E3,5.7744344E4,4.760917E4,5.1467E4,4.5850523E4,5.888675E4,6.04535E4,9.6737E4,9.33915E4,1.03725E4,0E0,0E0,0E0,0E0,0E0,0E0,0E0,0E0,0E0,0E0,0E0,0E0,0E0,0E0,0E0,0E0,0E0,0E0,0E0,0E0,0E0,0E0,0E0,0E0,0E0,0E0,0E0],"parents":[2147483647,0,0,1,1,2,2,3,3,4,4,5,5,6,6,7,7,8,8,9,9,10,10,11,11,12,12,13,13,14,14,17,17,18,18,19,19,20,20,21,21,22,22,23,23,24,24,25,25,26,26,27,27,28,28,29,29],"right_children":[2,4,6,8,10,12,14,16,18,20,22,24,26,28,30,-1,-1,32,34,36,38,40,42,44,46,48,50,52,54,56,-1,-1,-1,-1,-1,-1,-1,-1,-1,-1,-1,-1,-1,-1,-1,-1,-1,-1,-1,-1,-1,-1,-1,-1,-1,-1,-1],"split_conditions":[2.5544004E3,1.8568817E3,3.2463237E3,1.3306034E3,2.0774885E3,2.9096863E3,3.8483162E3,1.2627745E3,1.6867177E3,1.832396E3,2.535039E3,2.658116E3,2.9501184E3,3.095826E3,4.216365E3,-1.4008794E1,-1.1190618E1,1.567713E3,1.6071483E3,2.0284225E3,1.6940782E3,2.4670188E3,2.5404126E3,2.3647854E3,3.5908838E3,2.9273835E3,3.3541838E3,3.8125159E3,3.908496E3,4.3227905E3,2.5270767E1,-7.6757317E0,-9.754003E0,-3.374416E0,-6.952296E0,-3.7406983E0,2.6730958E-1,-7.434837E0,-4.7346435E0,-5.6703305E-1,-4.2626987E0,3.3857224E0,-2.9513307E0,1.1904787E1,6.1751356E0,1.984375E0,-5.8790956E0,9.520065E0,1.676505E1,6.891857E0,-3.1207886E0,1.6423702E1,3.4448242E-1,1.1697677E1,1.9842255E0,1.8279919E1,7.2337403E0],"split_indices":[5,5,5,5,5,5,5,5,5,2,3,3,3,4,2,0,0,3,7,4,7,3,5,7,3,3,2,3,2,6,0,0,0,0,0,0,0,0,0,0,0,0,0,0,0,0,0,0,0,0,0,0,0,0,0,0,0],"split_type":[0,0,0,0,0,0,0,0,0,0,0,0,0,0,0,0,0,0,0,0,0,0,0,0,0,0,0,0,0,0,0,0,0,0,0,0,0,0,0,0,0,0,0,0,0,0,0,0,0,0,0,0,0,0,0,0,0],"sum_hessian":[1.032E3,6.37E2,3.95E2,3.92E2,2.45E2,1.87E2,2.08E2,9.3E1,2.99E2,1.26E2,1.19E2,6.9E1,1.18E2,1.47E2,6.1E1,6E1,3.3E1,1.8E2,1.19E2,7E0,1.19E2,1.04E2,1.5E1,3.3E1,3.6E1,2.7E1,9.1E1,4.4E1,1.03E2,3.6E1,2.5E1,7.5E1,1.05E2,1.2E1,1.07E2,3E0,4E0,6E0,1.13E2,9.3E1,1.1E1,1.2E1,3E0,6E0,2.7E1,3.5E1,1E0,2.1E1,6E0,9E1,1E0,4.3E1,1E0,1E2,3E0,3.4E1,2E0],"tree_param":{"num_deleted":"0","num_feature":"8","num_nodes":"57","size_leaf_vector":"1"}},{"base_weights":[1.9108384E0,-1.3537656E2,2.1423055E2,-2.0184964E2,-7.715626E1,1.5802396E2,3.8130106E2,-2.6116302E2,-1.7524411E2,-1.06131096E2,-7.1348314E0,8.6677376E1,2.0334433E2,3.1973343E2,4.5834192E2,-3.0990665E2,-1.20776205E1,-9.585065E0,-1.5145543E2,-1.0744917E2,5.189276E0,-4.0095715E1,1.2859588E1,6.1613567E1,1.2103572E2,1.8449168E2,2.4017424E2,1.6420996E1,1.5849805E2,4.0615664E0,2.3269333E1,-1.5798526E1,-4.56413E0,-1.9777069E0,-7.613878E0,-5.7614737E0,-3.9733455E0,-1.2240433E0,-6.9128785E0,1.0401287E0,-3.303294E0,3.820313E0,8.164178E-1,8.326073E0,3.0199687E0,9.331737E0,-2.191864E0,1.5833786E1,1.0613824E1,9.110166E0,1.591925E0],"categories":[],"categories_nodes":[],"categories_segments":[],"categories_sizes":[],"default_left":[0,0,0,0,0,0,0,0,0,0,0,0,0,0,0,0,0,0,0,0,0,0,0,0,0,0,0,0,0,0,0,0,0,0,0,0,0,0,0,0,0,0,0,0,0,0,0,0,0,0,0],"id":30,"left_children":[1,3,5,7,9,11,13,15,17,19,21,23,25,27,29,31,-1,-1,33,35,-1,37,39,41,43,45,47,-1,49,-1,-1,-1,-1,-1,-1,-1,-1,-1,-1,-1,-1,-1,-1,-1,-1,-1,-1,-1,-1,-1,-1],"loss_changes":[3.0285478E7,2.42645E6,3.771054E6,4.18183E5,6.8499725E5,9.75045E5,3.37263E5,1.02155E4,5.1614E4,7.727925E4,6.6418984E4,9.674181E4,8.55315E4,3.198E4,7.6431E4,3.23E2,0E0,0E0,2.1645E3,4.265825E4,0E0,5.4861082E4,4.0869285E4,4.69845E4,1.27846625E5,7.08145E4,6.083075E4,0E0,9.211414E3,0E0,0E0,0E0,0E0,0E0,0E0,0E0,0E0,0E0,0E0,0E0,0E0,0E0,0E0,0E0,0E0,0E0,0E0,0E0,0E0,0E0,0E0],"parents":[2147483647,0,0,1,1,2,2,3,3,4,4,5,5,6,6,7,7,8,8,9,9,10,10,11,11,12,12,13,13,14,14,15,15,18,18,19,19,21,21,22,22,23,23,24,24,25,25,26,26,28,28],"right_children":[2,4,6,8,10,12,14,16,18,20,22,24,26,28,30,32,-1,-1,34,36,-1,38,40,42,44,46,48,-1,50,-1,-1,-1,-1,-1,-1,-1,-1,-1,-1,-1,-1,-1,-1,-1,-1,-1,-1,-1,-1,-1,-1],"split_conditions":[2.5344817E3,1.7154608E3,3.7059038E3,1.310447E3,2.157657E3,3.0200898E3,3.9965222E3,1.1700862E3,1.603106E3,2.5191162E3,2.2960383E3,2.8531433E3,3.4291697E3,4.0375476E3,3.9302573E3,1.2663842E3,-1.20776205E1,-9.585065E0,1.4516149E3,1.9613157E3,5.189276E0,2.5075706E3,2.6218018E3,2.7921172E3,2.9501184E3,4.000651E3,3.3821558E3,1.6420996E1,4.0375476E3,4.0615664E0,2.3269333E1,-1.5798526E1,-4.56413E0,-1.9777069E0,-7.613878E0,-5.7614737E0,-3.9733455E0,-1.2240433E0,-6.9128785E0,1.0401287E0,-3.303294E0,3.820313E0,8.164178E-1,8.326073E0,3.0199687E0,9.331737E0,-2.191864E0,1.5833786E1,1.0613824E1,9.110166E0,1.591925E0],"split_indices":[0,0,0,0,0,0,5,0,0,2,0,0,0,2,2,1,0,0,1,0,0,3,1,2,1,3,5,0,0,0,0,0,0,0,0,0,0,0,0,0,0,0,0,0,0,0,0,0,0,0,0],"split_type":[0,0,0,0,0,0,0,0,0,0,0,0,0,0,0,0,0,0,0,0,0,0,0,0,0,0,0,0,0,0,0,0,0,0,0,0,0,0,0,0,0,0,0,0,0,0,0,0,0,0,0],"sum_hessian":[1.037E3,6.3E2,4.07E2,2.93E2,3.37E2,3.06E2,1.01E2,8.8E1,2.05E2,2.38E2,9.9E1,1.2E2,1.86E2,5.9E1,4.2E1,2.1E1,6.7E1,1.17E2,8.8E1,2.37E2,1E0,3.7E1,6.2E1,7.1E1,4.9E1,1.27E2,5.9E1,5.5E1,4E0,1E0,4.1E1,2E1,1E0,1E0,8.7E1,1.83E2,5.4E1,3.3E1,4E0,5.7E1,5E0,5.3E1,1.8E1,2.7E1,2.2E1,1.26E2,1E0,1.3E1,4.6E1,3E0,1E0],"tree_param":{"num_deleted":"0","num_feature":"8","num_nodes":"51","size_leaf_vector":"1"}},{"base_weights":[-3.2231824E0,-1.3060405E2,2.0458305E2,-1.7650113E2,-5.9075882E1,1.2692497E2,3.1953928E2,-2.4325922E2,-1.513176E2,-8.604006E1,-1.8050434E1,6.1932632E1,1.525576E2,2.8117563E2,2.3443687E1,-1.4859766E1,-1.1321871E1,-1.7057817E2,-1.3031322E2,-7.072521E1,-9.654848E1,-1.3469909E1,-1.0421865E2,7.522346E1,2.2997648E1,1.2301388E2,1.7745187E2,2.4178111E2,1.5930414E1,-7.5186095E0,-9.12083E0,-6.714705E0,-2.8281522E0,-4.4581017E0,-2.1259725E0,4.039795E-1,-4.8921986E0,-1.0078013E0,5.7461524E0,-6.6215577E0,-2.0633302E0,4.0034266E0,-4.1757507E0,2.7718574E-1,8.429212E0,6.362777E0,-1.4843913E0,9.020309E0,-2.1370666E0,2.1399935E1,1.1158208E1],"categories":[],"categories_nodes":[],"categories_segments":[],"categories_sizes":[],"default_left":[0,0,0,0,0,0,0,0,0,0,0,0,0,0,0,0,0,0,0,0,0,0,0,0,0,0,0,0,0,0,0,0,0,0,0,0,0,0,0,0,0,0,0,0,0,0,0,0,0,0,0],"id":31,"left_children":[1,3,5,7,9,11,13,15,17,19,21,23,25,27,-1,-1,-1,29,31,33,35,37,39,41,43,45,47,49,-1,-1,-1,-1,-1,-1,-1,-1,-1,-1,-1,-1,-1,-1,-1,-1,-1,-1,-1,-1,-1,-1,-1],"loss_changes":[2.7582552E7,2.110348E6,3.494643E6,6.23905E5,2.794263E5,3.870415E5,7.79077E5,2.8878E4,9.42835E4,1.7794625E4,3.885515E4,3.3976E4,1.0320075E5,1.13195E5,0E0,0E0,0E0,7.733E3,3.4094E4,3.0530531E4,1.27185E4,8.64445E4,3.4151914E3,4.591097E4,4.734553E4,5.6242375E4,6.625775E4,1.3676225E5,0E0,0E0,0E0,0E0,0E0,0E0,0E0,0E0,0E0,0E0,0E0,0E0,0E0,0E0,0E0,0E0,0E0,0E0,0E0,0E0,0E0,0E0,0E0],"parents":[2147483647,0,0,1,1,2,2,3,3,4,4,5,5,6,6,7,7,8,8,9,9,10,10,11,11,12,12,13,13,17,17,18,18,19,19,20,20,21,21,22,22,23,23,24,24,25,25,26,26,27,27],"right_children":[2,4,6,8,10,12,14,16,18,20,22,24,26,28,-1,-1,-1,30,32,34,36,38,40,42,44,46,48,50,-1,-1,-1,-1,-1,-1,-1,-1,-1,-1,-1,-1,-1,-1,-1,-1,-1,-1,-1,-1,-1,-1,-1],"split_conditions":[2.5344817E3,1.8471244E3,3.4291697E3,1.3356523E3,2.157657E3,2.8531433E3,4.216365E3,1.1700862E3,1.6524574E3,1.8347279E3,2.6218018E3,2.7921172E3,3.1301648E3,3.7059038E3,2.3443687E1,-1.4859766E1,-1.1321871E1,1.5722347E3,2.0284225E3,1.8470078E3,1.8141099E3,3.239457E3,2.7644312E3,2.881158E3,3.2915776E3,3.244079E3,4.000651E3,3.2786677E3,1.5930414E1,-7.5186095E0,-9.12083E0,-6.714705E0,-2.8281522E0,-4.4581017E0,-2.1259725E0,4.039795E-1,-4.8921986E0,-1.0078013E0,5.7461524E0,-6.6215577E0,-2.0633302E0,4.0034266E0,-4.1757507E0,2.7718574E-1,8.429212E0,6.362777E0,-1.4843913E0,9.020309E0,-2.1370666E0,2.1399935E1,1.1158208E1],"split_indices":[0,0,0,0,0,0,2,0,0,4,1,2,0,0,0,0,0,3,4,3,3,4,2,1,2,1,3,2,0,0,0,0,0,0,0,0,0,0,0,0,0,0,0,0,0,0,0,0,0,0,0],"split_type":[0,0,0,0,0,0,0,0,0,0,0,0,0,0,0,0,0,0,0,0,0,0,0,0,0,0,0,0,0,0,0,0,0,0,0,0,0,0,0,0,0,0,0,0,0,0,0,0,0,0,0],"sum_hessian":[1.04E3,6.45E2,3.95E2,3.92E2,2.53E2,2.37E2,1.58E2,1.05E2,2.87E2,1.52E2,1.01E2,6.8E1,1.69E2,1.28E2,3E1,2.1E1,8.4E1,1.46E2,1.41E2,6.5E1,8.7E1,9.7E1,4E0,5E1,1.8E1,8E1,8.9E1,6.6E1,6.2E1,5.9E1,8.7E1,1.33E2,8E0,3.8E1,2.7E1,1E0,8.6E1,9.3E1,4E0,2E0,2E0,4.9E1,1E0,1.7E1,1E0,7.8E1,2E0,8.8E1,1E0,4E0,6.2E1],"tree_param":{"num_deleted":"0","num_feature":"8","num_nodes":"51","size_leaf_vector":"1"}},{"base_weights":[-1.6666938E0,-1.1675425E2,2.0262602E2,-1.7689241E2,-6.384272E1,1.4855864E2,3.5270615E2,-1.2300097E1,-1.5611322E2,-9.568239E1,-1.3641758E1,9.652114E1,1.9250558E2,3.0130438E2,4.5746E2,-1.8185454E2,-1.3178876E2,-9.679333E1,-1.31597595E1,-4.1912384E1,5.256146E0,9.994477E1,-3.37417E1,1.9439499E2,-2.0836427E0,1.5210497E1,2.6658142E0,2.6153463E1,1.7255796E1,-6.8631595E-1,-9.161656E0,-1.1653016E0,-6.6675262E0,-4.9632945E0,-3.0227463E0,-1.3199402E0,6.6393435E-1,-1.5816077E0,-6.029778E0,4.934434E-1,-6.0519695E0,4.2314205E0,8.551898E0,-4.1690555E0,2.879413E0,1.1335186E1,8.81285E0],"categories":[],"categories_nodes":[],"categories_segments":[],"categories_sizes":[],"default_left":[0,0,0,0,0,0,0,0,0,0,0,0,0,0,0,0,0,0,0,0,0,0,0,0,0,0,0,0,0,0,0,0,0,0,0,0,0,0,0,0,0,0,0,0,0,0,0],"id":32,"left_children":[1,3,5,7,9,11,13,-1,15,17,19,21,23,25,27,29,31,33,35,37,39,41,43,45,-1,-1,-1,-1,-1,-1,-1,-1,-1,-1,-1,-1,-1,-1,-1,-1,-1,-1,-1,-1,-1,-1,-1],"loss_changes":[2.4075974E7,2.072918E6,2.941831E6,4.01025E5,5.581285E5,6.0574E5,3.84465E5,0E0,1.25056E5,1.8345375E4,7.3413305E4,6.0010875E4,7.3142E4,3.2778E4,4.0605E4,2.3676E4,1.823975E4,1.2956875E4,1.7506206E3,4.0673766E4,4.9547508E4,1.205475E5,2.293603E4,4.56005E4,0E0,0E0,0E0,0E0,0E0,0E0,0E0,0E0,0E0,0E0,0E0,0E0,0E0,0E0,0E0,0E0,0E0,0E0,0E0,0E0,0E0,0E0,0E0],"parents":[2147483647,0,0,1,1,2,2,3,3,4,4,5,5,6,6,8,8,9,9,10,10,11,11,12,12,13,13,14,14,15,15,16,16,17,17,18,18,19,19,20,20,21,21,22,22,23,23],"right_children":[2,4,6,8,10,12,14,-1,16,18,20,22,24,26,28,30,32,34,36,38,40,42,44,46,-1,-1,-1,-1,-1,-1,-1,-1,-1,-1,-1,-1,-1,-1,-1,-1,-1,-1,-1,-1,-1,-1,-1],"split_conditions":[2.6101533E3,1.7579418E3,3.7059038E3,1.2663842E3,2.0796575E3,3.1424707E3,4.274743E3,-1.2300097E1,1.5865354E3,2.5189446E3,2.2572087E3,3.4352395E3,4.134453E3,4.478549E3,4.329332E3,1.1001698E3,1.332517E3,2.0252028E3,1.9721819E3,2.5075706E3,3.5908838E3,3.2492126E3,3.311442E3,3.077868E3,-2.0836427E0,1.5210497E1,2.6658142E0,2.6153463E1,1.7255796E1,-6.8631595E-1,-9.161656E0,-1.1653016E0,-6.6675262E0,-4.9632945E0,-3.0227463E0,-1.3199402E0,6.6393435E-1,-1.5816077E0,-6.029778E0,4.934434E-1,-6.0519695E0,4.2314205E0,8.551898E0,-4.1690555E0,2.879413E0,1.1335186E1,8.81285E0],"split_indices":[1,1,1,1,1,1,1,0,1,3,1,7,3,5,7,4,3,1,1,3,3,7,3,4,0,0,0,0,0,0,0,0,0,0,0,0,0,0,0,0,0,0,0,0,0,0,0],"split_type":[0,0,0,0,0,0,0,0,0,0,0,0,0,0,0,0,0,0,0,0,0,0,0,0,0,0,0,0,0,0,0,0,0,0,0,0,0,0,0,0,0,0,0,0,0,0,0],"sum_hessian":[1.022E3,6.54E2,3.68E2,3.05E2,3.49E2,2.72E2,9.6E1,6.8E1,2.37E2,2.13E2,1.36E2,1.26E2,1.46E2,6.7E1,2.9E1,1.12E2,1.25E2,2.1E2,3E0,5.4E1,8.2E1,1.23E2,3E0,1.45E2,1E0,6.6E1,1E0,1.6E1,1.3E1,1E0,1.11E2,2E0,1.23E2,1.95E2,1.5E1,2E0,1E0,4.9E1,5E0,8E1,2E0,1.03E2,2E1,2E0,1E0,4.8E1,9.7E1],"tree_param":{"num_deleted":"0","num_feature":"8","num_nodes":"47","size_leaf_vector":"1"}},{"base_weights":[-4.230124E0,-1.08846794E2,2.0173668E2,-1.5010562E2,-2.0422577E1,1.5866344E2,3.6359558E2,-2.106225E2,-1.1975518E2,-4.0458195E1,2.828534E1,1.1196329E2,2.0104865E2,3.3383722E2,2.5884476E1,-1.3045087E1,-1.92797E2,-1.3869241E2,-1.0350357E2,-4.4426395E1,8.906035E1,4.240204E1,-1.4067814E1,8.632729E1,1.3072903E2,2.4164557E2,1.7713821E2,1.6745898E2,3.4213812E2,-9.023158E0,-1.1321844E1,-1.891276E0,-6.9927444E0,-5.009547E0,-7.1741204E0,-3.079217E0,-1.1036657E0,1.8508302E-1,7.236613E0,1.0955689E0,3.2306366E0,-2.2871206E0,1.885812E0,4.997996E0,-1.0154487E-1,6.957086E0,1.3963257E0,1.2343596E1,-4.918091E-1,9.02912E0,2.6818483E0,1.2595047E1,-4.257721E0,6.7051187E0,1.7349983E1],"categories":[],"categories_nodes":[],"categories_segments":[],"categories_sizes":[],"default_left":[0,0,0,0,0,0,0,0,0,0,0,0,0,0,0,0,0,0,0,0,0,0,0,0,0,0,0,0,0,0,0,0,0,0,0,0,0,0,0,0,0,0,0,0,0,0,0,0,0,0,0,0,0,0,0],"id":33,"left_children":[1,3,5,7,9,11,13,15,17,19,21,23,25,27,-1,-1,29,31,33,35,37,39,41,43,45,47,49,51,53,-1,-1,-1,-1,-1,-1,-1,-1,-1,-1,-1,-1,-1,-1,-1,-1,-1,-1,-1,-1,-1,-1,-1,-1,-1,-1],"loss_changes":[2.245297E7,2.517895E6,2.389408E6,8.39869E5,2.1681677E5,5.297415E5,1.61924E5,8.9514E4,8.28975E4,8.464761E4,3.945914E4,5.3660125E4,9.7945E4,3.1096E4,0E0,0E0,8.5105E3,1.147725E4,8.668125E3,5.7321156E4,2.3224656E4,2.0884727E4,2.9609295E4,7.247625E4,6.18425E4,6.94595E4,3.072375E4,1.2810631E5,1.41485E4,0E0,0E0,0E0,0E0,0E0,0E0,0E0,0E0,0E0,0E0,0E0,0E0,0E0,0E0,0E0,0E0,0E0,0E0,0E0,0E0,0E0,0E0,0E0,0E0,0E0,0E0],"parents":[2147483647,0,0,1,1,2,2,3,3,4,4,5,5,6,6,7,7,8,8,9,9,10,10,11,11,12,12,13,13,16,16,17,17,18,18,19,19,20,20,21,21,22,22,23,23,24,24,25,25,26,26,27,27,28,28],"right_children":[2,4,6,8,10,12,14,16,18,20,22,24,26,28,-1,-1,30,32,34,36,38,40,42,44,46,48,50,52,54,-1,-1,-1,-1,-1,-1,-1,-1,-1,-1,-1,-1,-1,-1,-1,-1,-1,-1,-1,-1,-1,-1,-1,-1,-1,-1],"split_conditions":[2.6392993E3,1.9109142E3,3.8125159E3,1.5516377E3,2.372202E3,3.1724563E3,4.584799E3,1.2123003E3,1.7154608E3,2.559563E3,2.688195E3,2.9501184E3,3.095826E3,3.2332747E3,2.5884476E1,-1.3045087E1,1.5768335E3,1.1276425E3,1.9166561E3,2.157657E3,2.881158E3,2.584904E3,2.945131E3,3.095826E3,3.2332747E3,3.830382E3,3.8831404E3,3.908496E3,3.7372178E3,-9.023158E0,-1.1321844E1,-1.891276E0,-6.9927444E0,-5.009547E0,-7.1741204E0,-3.079217E0,-1.1036657E0,1.8508302E-1,7.236613E0,1.0955689E0,3.2306366E0,-2.2871206E0,1.885812E0,4.997996E0,-1.0154487E-1,6.957086E0,1.3963257E0,1.2343596E1,-4.918091E-1,9.02912E0,2.6818483E0,1.2595047E1,-4.257721E0,6.7051187E0,1.7349983E1],"split_indices":[0,0,0,0,0,0,0,0,0,2,2,0,4,3,0,0,3,4,1,0,3,6,2,2,1,3,1,1,1,0,0,0,0,0,0,0,0,0,0,0,0,0,0,0,0,0,0,0,0,0,0,0,0,0,0],"split_type":[0,0,0,0,0,0,0,0,0,0,0,0,0,0,0,0,0,0,0,0,0,0,0,0,0,0,0,0,0,0,0,0,0,0,0,0,0,0,0,0,0,0,0,0,0,0,0,0,0,0,0,0,0,0,0],"sum_hessian":[1.04E3,6.9E2,3.5E2,4.7E2,2.2E2,2.78E2,7.2E1,1.55E2,3.15E2,1.56E2,6.4E1,1.34E2,1.44E2,6.3E1,9E0,3.7E1,1.18E2,1.42E2,1.73E2,1.52E2,4E0,4.8E1,1.6E1,5.9E1,7.5E1,5E1,9.4E1,4E0,5.9E1,9.1E1,2.7E1,2E0,1.4E2,1.63E2,1E1,8.5E1,6.7E1,2E0,2E0,2.6E1,2.2E1,1E1,6E0,5.1E1,8E0,6.9E1,6E0,4.9E1,1E0,9.1E1,3E0,3E0,1E0,2E0,5.7E1],"tree_param":{"num_deleted":"0","num_feature":"8","num_nodes":"55","size_leaf_vector":"1"}},{"base_weights":[-1.7925621E0,-1.06111855E2,1.7723923E2,-1.6307147E2,-6.0067474E1,1.3838844E2,3.063465E2,-1.1338725E1,-1.471297E2,-8.78899E1,-1.579836E0,9.559166E1,1.7394603E2,2.774831E2,4.515213E2,-1.6452304E2,-1.2429745E2,-9.326863E1,-5.1292355E1,-2.6810421E1,2.2849415E1,5.6354332E1,1.1417129E2,2.316676E2,1.61632E2,1.407764E1,1.3384052E2,5.521045E0,2.353723E1,-9.414612E-1,-8.330982E0,-5.3313837E0,-6.703721E0,-4.7415366E0,-4.3471557E-1,-2.6862314E0,7.243164E-1,-2.7572328E-1,-2.8818626E0,6.7108016E0,2.96376E-1,4.565831E0,8.7108797E-1,6.3048034E0,2.2275512E0,4.5258E0,1.3474364E1,1.4452866E0,8.430507E0,7.8933024E0,1.5440979E0],"categories":[],"categories_nodes":[],"categories_segments":[],"categories_sizes":[],"default_left":[0,0,0,0,0,0,0,0,0,0,0,0,0,0,0,0,0,0,0,0,0,0,0,0,0,0,0,0,0,0,0,0,0,0,0,0,0,0,0,0,0,0,0,0,0,0,0,0,0,0,0],"id":34,"left_children":[1,3,5,7,9,11,13,-1,15,17,19,21,23,25,27,29,31,33,35,37,39,41,43,45,47,-1,49,-1,-1,-1,-1,-1,-1,-1,-1,-1,-1,-1,-1,-1,-1,-1,-1,-1,-1,-1,-1,-1,-1,-1,-1],"loss_changes":[1.9479688E7,1.718544E6,1.883718E6,2.65204E5,5.954411E5,4.35332E5,2.434515E5,0E0,7.40665E4,4.40345E4,7.395995E4,9.3441E4,7.69915E4,6.7445E3,3.3262E4,3.71835E4,4.188875E3,2.7579875E4,6.217992E3,3.841489E4,1.14161016E5,6.1023E4,7.0761125E4,1.14403125E5,1.2108675E5,0E0,5.019328E3,0E0,0E0,0E0,0E0,0E0,0E0,0E0,0E0,0E0,0E0,0E0,0E0,0E0,0E0,0E0,0E0,0E0,0E0,0E0,0E0,0E0,0E0,0E0,0E0],"parents":[2147483647,0,0,1,1,2,2,3,3,4,4,5,5,6,6,8,8,9,9,10,10,11,11,12,12,13,13,14,14,15,15,16,16,17,17,18,18,19,19,20,20,21,21,22,22,23,23,24,24,26,26],"right_children":[2,4,6,8,10,12,14,-1,16,18,20,22,24,26,28,30,32,34,36,38,40,42,44,46,48,-1,50,-1,-1,-1,-1,-1,-1,-1,-1,-1,-1,-1,-1,-1,-1,-1,-1,-1,-1,-1,-1,-1,-1,-1,-1],"split_conditions":[2.5876912E3,1.7026752E3,3.7372178E3,1.2504386E3,2.1078872E3,3.1175764E3,4.486243E3,-1.1338725E1,1.5865354E3,1.9943313E3,2.2744587E3,2.7921172E3,3.0137327E3,4.3587373E3,4.0375476E3,1.1001698E3,1.6151527E3,2.5012283E3,2.5189446E3,2.1936917E3,2.2698538E3,2.7149453E3,3.1577515E3,2.7364885E3,2.7857275E3,1.407764E1,4.2983066E3,5.521045E0,2.353723E1,-9.414612E-1,-8.330982E0,-5.3313837E0,-6.703721E0,-4.7415366E0,-4.3471557E-1,-2.6862314E0,7.243164E-1,-2.7572328E-1,-2.8818626E0,6.7108016E0,2.96376E-1,4.565831E0,8.7108797E-1,6.3048034E0,2.2275512E0,4.5258E0,1.3474364E1,1.4452866E0,8.430507E0,7.8933024E0,1.5440979E0],"split_indices":[1,1,1,1,1,1,2,0,1,1,6,1,3,2,3,4,6,4,3,3,7,3,2,3,4,0,3,0,0,0,0,0,0,0,0,0,0,0,0,0,0,0,0,0,0,0,0,0,0,0,0],"split_type":[0,0,0,0,0,0,0,0,0,0,0,0,0,0,0,0,0,0,0,0,0,0,0,0,0,0,0,0,0,0,0,0,0,0,0,0,0,0,0,0,0,0,0,0,0,0,0,0,0,0,0],"sum_hessian":[1.041E3,6.58E2,3.83E2,2.93E2,3.65E2,2.96E2,8.7E1,5.6E1,2.37E2,2.47E2,1.18E2,1.36E2,1.6E2,7.5E1,1.2E1,1.31E2,1.06E2,2.14E2,3.3E1,5.8E1,6E1,4.5E1,9.1E1,2.5E1,1.35E2,7.2E1,3E0,1E0,1.1E1,2E0,1.29E2,4.2E1,6.4E1,2.1E2,4E0,3.2E1,1E0,3.5E1,2.3E1,7E0,5.3E1,2.3E1,2.2E1,7.7E1,1.4E1,6E0,1.9E1,7E0,1.28E2,2E0,1E0],"tree_param":{"num_deleted":"0","num_feature":"8","num_nodes":"51","size_leaf_vector":"1"}},{"base_weights":[-1.549292E0,-1.0744112E2,1.6222029E2,-1.6957153E2,-7.0961586E1,1.1244332E2,2.9440915E2,-2.1385893E2,-1.4761017E2,-9.113864E1,-2.5796997E1,6.690298E1,1.4848204E2,2.6939694E2,2.4228167E1,-1.3616515E1,-1.9998749E2,-1.625845E2,-1.3083571E2,-1.02306755E2,-7.317387E1,-3.6469814E1,-5.9787173E0,6.889292E1,-5.09325E0,1.2929193E2,1.8625607E2,2.3126521E2,3.0374173E2,-3.9936543E0,-1.0124652E1,-7.427507E0,-1.1282378E1,-1.1450866E0,-6.594275E0,-3.655932E0,-5.350191E0,-2.5553002E0,-4.335076E0,-1.9672209E0,4.9811893E0,3.7089746E0,-7.689506E-1,2.6483886E0,4.6416464E0,6.7691016E0,-2.461853E-1,1.0164828E1,4.462209E0,1.2572725E1,7.85313E0,1.5344149E1,3.6669862E0],"categories":[],"categories_nodes":[],"categories_segments":[],"categories_sizes":[],"default_left":[0,0,0,0,0,0,0,0,0,0,0,0,0,0,0,0,0,0,0,0,0,0,0,0,0,0,0,0,0,0,0,0,0,0,0,0,0,0,0,0,0,0,0,0,0,0,0,0,0,0,0,0,0],"id":35,"left_children":[1,3,5,7,9,11,13,15,17,19,21,23,25,27,-1,-1,29,31,33,35,37,39,41,43,-1,45,47,49,51,-1,-1,-1,-1,-1,-1,-1,-1,-1,-1,-1,-1,-1,-1,-1,-1,-1,-1,-1,-1,-1,-1,-1,-1],"loss_changes":[1.8503854E7,1.456651E6,2.723899E6,2.008865E5,3.7127688E5,4.9227825E5,4.11664E5,7.9905E3,1.967175E4,4.9293E4,2.6856117E4,5.302775E4,9.91495E4,6.4647E4,0E0,0E0,3.6895E3,3.9054E4,6.27075E3,1.5757E4,2.9003938E4,3.6390492E4,3.5802297E4,4.6932625E4,0E0,9.54835E4,7.277925E4,3.990525E4,1.44045E4,0E0,0E0,0E0,0E0,0E0,0E0,0E0,0E0,0E0,0E0,0E0,0E0,0E0,0E0,0E0,0E0,0E0,0E0,0E0,0E0,0E0,0E0,0E0,0E0],"parents":[2147483647,0,0,1,1,2,2,3,3,4,4,5,5,6,6,7,7,8,8,9,9,10,10,11,11,12,12,13,13,16,16,17,17,18,18,19,19,20,20,21,21,22,22,23,23,25,25,26,26,27,27,28,28],"right_children":[2,4,6,8,10,12,14,16,18,20,22,24,26,28,-1,-1,30,32,34,36,38,40,42,44,-1,46,48,50,52,-1,-1,-1,-1,-1,-1,-1,-1,-1,-1,-1,-1,-1,-1,-1,-1,-1,-1,-1,-1,-1,-1,-1,-1],"split_conditions":[2.4722412E3,1.6352217E3,3.5908838E3,1.2760935E3,2.0274174E3,3.0137327E3,4.584799E3,1.1001698E3,1.5516377E3,1.8471244E3,2.2960383E3,3.471907E3,3.4220498E3,3.9302573E3,2.4228167E1,-1.3616515E1,1.0677307E3,1.5938578E3,1.1276425E3,1.5998158E3,1.8347279E3,3.908496E3,1.9772769E3,2.8531433E3,-5.09325E0,3.5596177E3,3.6667175E3,3.8831404E3,4.6171504E3,-3.9936543E0,-1.0124652E1,-7.427507E0,-1.1282378E1,-1.1450866E0,-6.594275E0,-3.655932E0,-5.350191E0,-2.5553002E0,-4.335076E0,-1.9672209E0,4.9811893E0,3.7089746E0,-7.689506E-1,2.6483886E0,4.6416464E0,6.7691016E0,-2.461853E-1,1.0164828E1,4.462209E0,1.2572725E1,7.85313E0,1.5344149E1,3.6669862E0],"split_indices":[0,0,0,0,0,0,0,0,0,0,0,7,0,0,0,0,4,2,4,6,4,4,4,0,0,2,2,2,5,0,0,0,0,0,0,0,0,0,0,0,0,0,0,0,0,0,0,0,0,0,0,0,0],"split_type":[0,0,0,0,0,0,0,0,0,0,0,0,0,0,0,0,0,0,0,0,0,0,0,0,0,0,0,0,0,0,0,0,0,0,0,0,0,0,0,0,0,0,0,0,0,0,0,0,0,0,0,0,0],"sum_hessian":[1.065E3,6.47E2,4.18E2,2.38E2,4.09E2,3.05E2,1.13E2,7.6E1,1.62E2,2.82E2,1.27E2,1.36E2,1.69E2,1.02E2,1.1E1,1.1E1,6.5E1,8.1E1,8.1E1,1.71E2,1.11E2,8.2E1,4.5E1,1.35E2,1E0,1.15E2,5.4E1,5.2E1,5E1,2E0,6.3E1,6.9E1,1.2E1,1E0,8E1,2.6E1,1.45E2,4.4E1,6.7E1,8.1E1,1E0,4E0,4.1E1,8.3E1,5.2E1,1.1E2,5E0,4.5E1,9E0,3.9E1,1.3E1,4.9E1,1E0],"tree_param":{"num_deleted":"0","num_feature":"8","num_nodes":"53","size_leaf_vector":"1"}},{"base_weights":[3.4816246E0,-9.4424805E1,1.7705768E2,-1.3318925E2,-2.842422E1,1.3334355E2,2.9537265E2,-1.8350572E2,-1.1020431E2,-5.6428196E1,1.927948E1,8.465616E1,1.5318904E2,2.5352321E2,3.7138904E2,-1.0914694E1,-1.6580875E2,-1.1259733E2,-2.4041573E1,-6.952889E1,-3.1582787E1,8.976796E0,4.9349293E1,9.01334E1,-4.3898315E0,1.3349522E2,1.7692044E2,2.6396298E2,7.127739E1,2.2459438E1,1.4521072E1,-4.1487765E0,-8.487575E0,-6.0655007E0,-4.754451E0,2.3309479E0,-1.9350754E0,-2.8466642E0,-5.251919E0,-1.7882589E0,4.856659E0,1.2107531E0,-1.0301956E0,4.106397E0,-1.1188339E0,9.113776E0,3.9321766E0,6.901269E0,5.8314455E-1,9.78614E0,5.1147656E0,1.3476631E1,7.272429E0,-1.3838074E0,5.146741E0],"categories":[],"categories_nodes":[],"categories_segments":[],"categories_sizes":[],"default_left":[0,0,0,0,0,0,0,0,0,0,0,0,0,0,0,0,0,0,0,0,0,0,0,0,0,0,0,0,0,0,0,0,0,0,0,0,0,0,0,0,0,0,0,0,0,0,0,0,0,0,0,0,0,0,0],"id":36,"left_children":[1,3,5,7,9,11,13,15,17,19,21,23,25,27,29,-1,31,33,35,37,39,41,43,45,-1,47,49,51,53,-1,-1,-1,-1,-1,-1,-1,-1,-1,-1,-1,-1,-1,-1,-1,-1,-1,-1,-1,-1,-1,-1,-1,-1,-1,-1],"loss_changes":[1.7435786E7,1.6745745E6,1.874267E6,4.57421E5,3.2704588E5,2.49845E5,2.20788E5,4.26075E4,5.626325E4,4.7929844E4,2.7748781E4,8.442319E4,6.61155E4,1.0866E5,7.74215E4,0E0,1.498125E4,3.0872E4,1.1127133E4,3.8746188E4,3.3082715E4,3.1601273E4,5.591261E4,6.930256E4,0E0,5.85495E4,9.784125E4,2.382E3,1.851191E4,0E0,0E0,0E0,0E0,0E0,0E0,0E0,0E0,0E0,0E0,0E0,0E0,0E0,0E0,0E0,0E0,0E0,0E0,0E0,0E0,0E0,0E0,0E0,0E0,0E0,0E0],"parents":[2147483647,0,0,1,1,2,2,3,3,4,4,5,5,6,6,7,7,8,8,9,9,10,10,11,11,12,12,13,13,14,14,16,16,17,17,18,18,19,19,20,20,21,21,22,22,23,23,25,25,26,26,27,27,28,28],"right_children":[2,4,6,8,10,12,14,16,18,20,22,24,26,28,30,-1,32,34,36,38,40,42,44,46,-1,48,50,52,54,-1,-1,-1,-1,-1,-1,-1,-1,-1,-1,-1,-1,-1,-1,-1,-1,-1,-1,-1,-1,-1,-1,-1,-1,-1,-1],"split_conditions":[2.6218018E3,1.8749501E3,3.7372178E3,1.4826167E3,2.2825444E3,2.9881685E3,4.216365E3,1.2123003E3,2.0183362E3,2.1095798E3,2.911602E3,3.3604717E3,3.336594E3,4.26493E3,4.329332E3,-1.0914694E1,1.1001698E3,1.7616597E3,1.8050841E3,2.0531768E3,2.881158E3,2.3575796E3,3.1790935E3,2.3647854E3,-4.3898315E0,3.908496E3,3.7059038E3,4.134453E3,4.216365E3,2.2459438E1,1.4521072E1,-4.1487765E0,-8.487575E0,-6.0655007E0,-4.754451E0,2.3309479E0,-1.9350754E0,-2.8466642E0,-5.251919E0,-1.7882589E0,4.856659E0,1.2107531E0,-1.0301956E0,4.106397E0,-1.1188339E0,9.113776E0,3.9321766E0,6.901269E0,5.8314455E-1,9.78614E0,5.1147656E0,1.3476631E1,7.272429E0,-1.3838074E0,5.146741E0],"split_indices":[0,0,0,0,0,0,2,0,4,0,4,6,0,6,7,0,4,0,2,7,3,3,7,7,0,4,3,2,0,0,0,0,0,0,0,0,0,0,0,0,0,0,0,0,0,0,0,0,0,0,0,0,0,0,0],"split_type":[0,0,0,0,0,0,0,0,0,0,0,0,0,0,0,0,0,0,0,0,0,0,0,0,0,0,0,0,0,0,0,0,0,0,0,0,0,0,0,0,0,0,0,0,0,0,0,0,0,0,0,0,0,0,0],"sum_hessian":[1.024E3,6.55E2,3.69E2,4.12E2,2.43E2,2.71E2,9.8E1,1.27E2,2.85E2,1.53E2,9E1,8E1,1.91E2,6.6E1,3.2E1,3.9E1,8.8E1,2.77E2,8E0,9.9E1,5.4E1,6.8E1,2.2E1,7.8E1,2E0,1.08E2,8.3E1,6.2E1,4E0,1.4E1,1.8E1,5E0,8.3E1,1.81E2,9.6E1,1E0,7E0,7.5E1,2.4E1,5.3E1,1E0,4.5E1,2.3E1,1.5E1,7E0,7E0,7.1E1,1.04E2,4E0,6.5E1,1.8E1,5.8E1,4E0,1E0,3E0],"tree_param":{"num_deleted":"0","num_feature":"8","num_nodes":"55","size_leaf_vector":"1"}},{"base_weights":[2.5613576E-1,-8.57482E1,1.727612E2,-1.2891106E2,-2.795826E1,1.18464195E2,2.4209532E2,-1.7605406E2,-1.0449411E2,-5.5384926E1,1.2619468E1,9.027973E1,1.3794531E2,2.2606914E2,2.2272884E1,-1.5219473E2,-1.956941E2,-1.2051828E2,-8.9660835E1,-5.676795E1,4.735242E0,-5.6285605E0,3.007531E1,9.7950645E1,-8.5708435E1,1.438794E2,6.1842896E1,2.0236867E2,2.656306E2,-8.136078E0,-4.286238E0,-1.0935508E1,-8.527831E0,1.7570496E-1,-6.077762E0,-4.593138E0,-2.0785508E0,-3.3953E0,-2.0357394E0,3.6194444E-1,-2.073324E0,2.024946E0,-3.6980755E0,1.1203911E1,4.4181976E0,-5.5457764E0,-2.5217897E-1,3.0874536E0,7.3260355E0,-2.3502024E-2,7.7714906E0,1.0577127E1,4.6620526E0,4.425049E-3,1.3552403E1],"categories":[],"categories_nodes":[],"categories_segments":[],"categories_sizes":[],"default_left":[0,0,0,0,0,0,0,0,0,0,0,0,0,0,0,0,0,0,0,0,0,0,0,0,0,0,0,0,0,0,0,0,0,0,0,0,0,0,0,0,0,0,0,0,0,0,0,0,0,0,0,0,0,0,0],"id":37,"left_children":[1,3,5,7,9,11,13,15,17,19,21,23,25,27,-1,29,31,33,35,37,-1,39,41,43,45,47,49,51,53,-1,-1,-1,-1,-1,-1,-1,-1,-1,-1,-1,-1,-1,-1,-1,-1,-1,-1,-1,-1,-1,-1,-1,-1,-1,-1],"loss_changes":[1.5429609E7,1.727495E6,1.273884E6,4.38586E5,3.3234666E5,9.516325E4,